svm_type c_svc
kernel_type rbf
gamma 0.01
nr_class 3
total_sv 4054
rho 5.91917 1.45343 -3.41242
label 1 0 2
probA -2.12483 -2.94436 -2.36431
probB 0.224074 0.00671356 -0.192368
nr_sv 1281 2224 549
SV
88.86033776248898 0 1:0.65384614 2:-0.46445376 3:0.21153846 4:0.05769231 5:0.69230771 6:0.26923078 7:-0.36538461 8:0.34615386 9:0.26923078 10:2.32824 11:-0.768193 12:-2.06836 13:2.7142 14:-0.188445 15:1.96296 16:0.676043 17:-0.872332 18:-0.400853 19:-0.714431 20:0.920179 21:0.0045979 22:-1.08695 23:-0.995391 24:-0.484123 25:0.936903 26:0.735407 27:-0.950043 28:0.513404 29:0.86995 30:0.897532 31:-1.14147 32:0.729457 33:-0.375412 34:-0.15498 35:-0.485323 36:-0.311583 37:0.414032 38:0.990407 39:0.100441 40:-0.408249 
42.28245083775334 0.08333797437105502 1:0.27272728 2:-0.54901403 3:0.22727273 4:-0.52525252 5:0.01010101 6:-0.44444445 7:0.09090909 8:0.72727275 9:0.35353535 10:-0.796966 11:-0.635798 12:-0.519125 13:1.51699 14:1.47362 15:1.70171 16:0.616936 17:-0.0365976 18:0.488924 19:-1.2974 20:0.375367 21:-1.28111 22:1.39923 23:-0.607324 24:-0.951141 25:0.370817 26:-0.456588 27:0.481139 28:-0.417854 29:0.23283 30:0.277866 31:0.153317 32:-0.7668 33:-0.0966489 34:-1.11474 35:-0.928425 36:-0.128561 37:-0.327856 38:1.19194 39:-0.783031 40:0.219176 
41.43271547010315 0 1:0.22580644 2:-0.54080641 3:0.21370968 4:-0.49193549 5:0.0483871 6:-0.37903225 7:0.14516129 8:0.77419353 9:0.36290324 10:-1.12748 11:-1.80664 12:-1.14777 13:1.99593 14:1.12862 15:0.648698 16:0.144113 17:-0.897773 18:-0.594084 19:-1.83896 20:0.776848 21:-0.393062 22:1.25501 23:-0.542659 24:-0.929759 25:0.296604 26:-0.958652 27:0.0291061 28:1.0034 29:0.601681 30:0.626095 31:-0.353757 32:-0.855152 33:0.0319632 34:-0.743947 35:0.486052 36:-0.767166 37:0.786934 38:0.439786 39:0.593294 40:-0.334512 
128 0 1:1 2:-0.06894991 3:0.14935064 4:0.12987013 5:0.62337661 6:0.32467532 7:-0.4025974 8:-0.07792208 9:0.58441556 10:1.92658 11:-0.630872 12:-2.47476 13:1.48244 14:-0.429002 15:-0.210797 16:1.67979 17:0.668754 18:1.33143 19:0.191131 20:0.298419 21:0.122391 22:-0.380453 23:-0.694084 24:0.541998 25:-1.01535 26:0.295343 27:-1.68992 28:-0.334597 29:0.153759 30:1.22615 31:-0.608436 32:-0.636113 33:-0.386621 34:0.595181 35:-0.630127 36:0.676353 37:0.14308 38:0.752242 39:0.0769767 40:-0.463911 
128 0 1:0.56451613 2:-0.31103319 3:0.07258064 4:0.01612903 5:0.3548387 6:0.20967741 7:-0.09677419 8:0.43548387 9:0.45161289 10:2.07598 11:-0.499181 12:-3.88633 13:1.80385 14:0.333052 15:0.352509 16:0.00765866 17:0.696205 18:0.100874 19:-0.0467551 20:-0.359879 21:0.0249498 22:-0.602313 23:-0.635251 24:0.0708335 25:-1.14433 26:-1.36704 27:0.0128435 28:0.574731 29:0.625155 30:0.43643 31:-0.0762036 32:0.291571 33:0.252818 34:0.509213 35:-0.102964 36:-0.639369 37:0.336227 38:-0.386758 39:-1.02189 40:-0.442263 
67.56820912934784 0 1:0.85227275 2:-0.10547552 3:0.15909091 4:-0.04545455 5:0.43181819 6:0.11363637 7:-0.375 8:0.14772727 9:0.46590909 10:2.35328 11:0.0446843 12:-3.03207 13:2.48364 14:0.949484 15:1.1105 16:-0.0651247 17:1.21518 18:-0.0749195 19:0.450498 20:-0.281668 21:-0.828377 22:-0.661184 23:-1.38694 24:0.972301 25:-1.55446 26:-1.09821 27:0.605704 28:0.317113 29:1.2516 30:0.447471 31:0.486561 32:1.46385 33:0.462333 34:1.35657 35:-0.509961 36:-0.216546 37:0.0744207 38:0.277733 39:-1.4849 40:0.0601784 
128 0 1:0.79710144 2:-0.20914559 3:0.13043478 4:-0.01449275 5:0.56521738 6:0.30434781 7:-0.24637681 8:0.20289855 9:0.53623188 10:2.09671 11:-0.751815 12:-2.44525 13:2.00744 14:-0.209749 15:-0.673069 16:0.555474 17:-0.164218 18:1.70227 19:0.0517119 20:0.334499 21:0.362109 22:0.223481 23:-0.463678 24:0.575064 25:-1.11012 26:-0.855735 27:-0.850595 28:0.502826 29:-0.0344738 30:0.804619 31:0.0144761 32:-0.530853 33:0.474718 34:0.327182 35:-0.438059 36:0.360473 37:-1.34083 38:0.119011 39:-0.374331 40:-0.955361 
128 0 1:0.43859649 2:-0.54069734 3:-0.10526316 4:0.14035088 5:0.49122807 6:0.70175439 7:-0.47368422 8:0.50877196 9:-0.05263158 10:3.20227 11:-0.335957 12:-3.28738 13:0.69359 14:-2.01213 15:0.239119 16:-0.0106006 17:-0.104217 18:-1.70579 19:1.87435 20:0.686543 21:0.611131 22:0.244187 23:-0.245424 24:-0.322464 25:0.425668 26:0.743197 27:-0.623128 28:-0.0600758 29:0.0409572 30:-0.751208 31:-0.940301 32:-0.70985 33:-0.182356 34:0.730751 35:-0.267912 36:-0.0794085 37:0.547691 38:0.22123 39:-0.519408 40:-0.44195 
128 0 1:0.25806451 2:-0.26733127 3:0.14516129 4:0.12903225 5:0.7096774 6:0.41935483 7:-0.64516127 8:0.33870968 9:-0.40322581 10:2.74432 11:-0.462284 12:-1.95903 13:1.43179 14:-1.03747 15:0.886777 16:-0.967086 17:-0.5956 18:-0.810142 19:-0.51567 20:-0.460379 21:-1.6464 22:0.570883 23:0.170107 24:-1.29901 25:0.192988 26:0.159889 27:-1.27708 28:-0.406551 29:0.438574 30:-0.116945 31:-0.556454 32:0.765191 33:0.0515919 34:1.00168 35:0.128331 36:0.717056 37:0.196127 38:0.490074 39:0.225392 40:0.690246 
63.60969749919187 0 1:0.34482759 2:-0.34608433 3:0.14655173 4:0.12068965 5:0.75862068 6:0.46551725 7:-0.60344827 8:0.37931034 9:-0.27586207 10:3.39955 11:0.639199 12:-2.80682 13:1.91474 14:-2.36084 15:0.536889 16:-1.12003 17:-0.588444 18:1.56251 19:0.501131 20:-0.153663 21:0.164457 22:1.9217 23:0.560067 24:-1.55137 25:0.14072 26:1.53203 27:0.0230742 28:-0.14717 29:-0.379605 30:-0.422432 31:-0.330877 32:-0.0721281 33:-0.124815 34:1.15178 35:-0.425869 36:1.19926 37:0.500452 38:0.255058 39:0.332131 40:0.417392 
128 0 1:0.39473686 2:-0.45842099 3:0.39473686 4:0.23684211 5:1.0789474 6:0.28947368 7:-0.05263158 8:0.60526317 9:0.31578946 10:1.62441 11:-0.420597 12:-1.93602 13:3.04097 14:-0.234342 15:-0.472158 16:-0.369127 17:0.87701 18:1.60114 19:-0.429111 20:-0.225543 21:0.476012 22:0.148549 23:0.0917798 24:0.190248 25:-0.622331 26:-0.878052 27:-0.0785561 28:0.67509 29:0.249126 30:0.691891 31:-0.144122 32:-0.171463 33:-0.733145 34:0.831177 35:-0.480411 36:0.514872 37:-0.398223 38:-1.03727 39:-0.603931 40:-0.792623 
65.05225998923919 0 1:0.63333333 2:-0.22303441 3:0.075 4:0.21666667 5:0.56666666 6:0.41666666 7:-0.25 8:0.36666667 9:0.36666667 10:3.18334 11:-0.385705 12:-2.76485 13:1.08783 14:-0.219414 15:0.979851 16:-0.58736 17:0.459024 18:0.372207 19:1.85255 20:-0.363461 21:-0.253099 22:-0.433875 23:0.741903 24:0.262646 25:-0.514638 26:0.231471 27:-0.960861 28:0.101036 29:-0.41576 30:-0.911888 31:-0.464862 32:-0.276427 33:0.702392 34:0.494911 35:-1.4282 36:1.43525 37:0.738942 38:0.13934 39:-0.734179 40:-1.0995 
78.89963146108231 0 1:0.48387095 2:-0.15835768 3:0.17741935 4:0.32258064 5:1 6:0.64516127 7:-0.45161289 8:0.51612902 9:0 10:3.40766 11:-0.596667 12:-1.80428 13:2.41665 14:-0.482525 15:1.54741 16:0.0581777 17:-0.125324 18:0.240188 19:2.19758 20:0.217891 21:0.460323 22:-0.0741098 23:0.869064 24:-0.113047 25:0.875066 26:0.192768 27:0.481454 28:0.417138 29:-0.311963 30:0.623674 31:0.27744 32:1.03825 33:0.132951 34:0.195886 35:-0.0983712 36:-0.160471 37:0.34181 38:-0.0154309 39:-0.667498 40:0.244331 
128 0 1:0.66037738 2:-0.1596517 3:0.1509434 4:0.3018868 5:0.81132078 6:0.50943398 7:-0.26415095 8:0.33962265 9:0.3773585 10:3.87116 11:-0.869526 12:-1.39457 13:1.97195 14:-0.452526 15:0.802294 16:0.0117224 17:0.283053 18:0.737142 19:2.20423 20:-0.626426 21:0.817841 22:0.46569 23:0.379195 24:0.0460424 25:-0.308247 26:0.0342243 27:-0.463707 28:-0.715605 29:-0.822896 30:0.210118 31:-0.813046 32:-0.416907 33:0.185214 34:0.493652 35:-0.31652 36:0.606673 37:0.320269 38:0.0898752 39:-0.289814 40:0.116092 
128 0 1:0.6388889 2:-0.19008721 3:0.16666667 4:0.22222222 5:0.83333331 6:0.5 7:-0.3888889 8:0.3611111 9:0.22222222 10:3.36394 11:-0.464412 12:-0.992637 13:1.48301 14:-1.75518 15:0.698372 16:0.625004 17:-0.255759 18:-0.179059 19:0.851754 20:-0.716479 21:1.0176 22:-1.00488 23:1.17936 24:-0.381067 25:-0.638907 26:0.0757765 27:-0.244875 28:0.0613758 29:0.426372 30:0.474974 31:-0.174476 32:-1.19705 33:-0.207479 34:-0.369355 35:-0.215575 36:0.638477 37:0.107417 38:0.275867 39:0.820819 40:0.332954 
128 0 1:0.3877551 2:-0.4248299 3:0.23469388 4:0.22448979 5:0.71428573 6:0.24489796 7:-0.02040816 8:0.6122449 9:0.34693879 10:1.95701 11:-0.660641 12:-2.29234 13:2.2476 14:-0.155329 15:0.488233 16:0.0359611 17:0.828557 18:0.533195 19:1.32161 20:0.590099 21:0.893654 22:0.0617023 23:-0.047739 24:-0.0235626 25:-0.880045 26:-1.13546 27:-0.297419 28:0.431247 29:-0.911123 30:0.686996 31:-0.451568 32:-0.170711 33:-0.581305 34:-0.179203 35:-0.671868 36:0.202458 37:0.0868518 38:-0.666767 39:-0.552362 40:-0.95004 
37.61157502886504 0 1:0.30434781 2:-0.43316367 3:0.25 4:0.23913044 5:0.78260869 6:0.28260869 7:0.02173913 8:0.69565219 9:0.30434781 10:1.79097 11:-0.426709 12:-2.41979 13:2.75432 14:0.815676 15:0.691759 16:-0.49577 17:0.458468 18:-0.32879 19:0.977751 20:0.62427 21:-0.678757 22:0.112814 23:0.400529 24:0.183956 25:-0.437445 26:-1.3066 27:0.590769 28:0.0971516 29:0.451711 30:0.667641 31:0.209566 32:-0.0832523 33:-0.334852 34:0.641382 35:-0.257306 36:-0.536961 37:0.0887591 38:-0.670815 39:-1.5719 40:-0.725182 
47.12260949513333 0 1:0.40425533 2:-0.42389533 3:0.26595744 4:0.10638298 5:0.70212764 6:0.17021276 7:-0.0212766 8:0.59574467 9:0.36170211 10:1.49206 11:-0.60203 12:-2.67599 13:3.00463 14:0.00626674 15:-0.0524657 16:-0.101903 17:0.97417 18:1.55428 19:-0.272802 20:0.209296 21:0.097315 22:-0.018928 23:-0.174134 24:-0.154228 25:-0.984377 26:-1.29291 27:0.424852 28:0.393822 29:0.386639 30:0.801563 31:0.491051 32:0.438573 33:-0.000829799 34:0.447586 35:-0.533497 36:-0.287602 37:-0.457739 38:-0.821698 39:-1.22955 40:-0.908212 
128 0 1:0.55555558 2:-0.27777779 3:0.05555556 4:0.30555555 5:0.97222221 6:0.8611111 7:-0.3888889 8:0.44444445 9:0.1388889 10:3.68103 11:-1.2092 12:-2.55844 13:2.176 14:-1.78235 15:0.108925 16:-0.414911 17:0.196079 18:-0.564597 19:1.3866 20:1.02426 21:0.417504 22:-1.05972 23:0.25982 24:0.337757 25:-0.38037 26:0.0103075 27:0.80071 28:-0.350501 29:-0.707032 30:-0.909669 31:-1.12271 32:-0.0418504 33:-0.402045 34:-0.288138 35:0.0810806 36:1.11189 37:0.883556 38:-0.202009 39:0.0122773 40:0.0844191 
128 0 1:0.53302491 2:-0.21444783 3:0.01657671 4:0.077101 5:0.43613467 6:0.40298125 7:-0.29452583 8:0.46697506 9:0.23824209 10:3.2331 11:0.154639 12:-3.18965 13:0.683438 14:-0.764298 15:0.0209229 16:0.622183 17:0.440492 18:0.44815 19:0.430982 20:-1.16858 21:0.597835 22:-1.42075 23:1.01595 24:-0.36571 25:1.02366 26:0.266919 27:-0.509033 28:0.0731946 29:-0.704124 30:-1.36543 31:0.45221 32:0.311868 33:-0.690556 34:0.158402 35:-0.0607794 36:-0.141418 37:0.39479 38:0.175251 39:-1.18235 40:-0.763234 
128 0 1:0.40304184 2:-0.42627588 3:0.13149557 4:0.18124208 5:0.51140684 6:0.24841572 7:-0.47908744 8:0.52027881 9:-0.07667934 10:0.850412 11:1.0218 12:-1.55094 13:0.738784 14:-0.0284758 15:0.754665 16:-1.26832 17:0.0470676 18:-0.0835416 19:-1.24052 20:1.23858 21:-0.137491 22:-0.379726 23:0.124626 24:-0.783012 25:0.23055 26:0.0407571 27:-0.894059 28:0.0911377 29:-0.0964098 30:-0.400041 31:1.15953 32:0.452616 33:-0.362232 34:-0.0505531 35:0.0994515 36:-0.61942 37:-0.143404 38:0.158763 39:-0.0220891 40:0.252908 
128 0 1:0.50838923 2:-0.4246814 3:-0.18414429 4:0.17365772 5:0.28942952 6:0.65771812 7:-0.227349 8:0.49161074 9:0.28020135 10:2.32806 11:-0.228284 12:-1.91595 13:-0.886426 14:-0.45992 15:0.918763 16:0.305981 17:0.671356 18:0.615047 19:0.950441 20:-1.64301 21:0.195626 22:-0.67536 23:-0.150604 24:-0.701436 25:-0.335413 26:0.53077 27:-0.599737 28:-0.689913 29:-0.0167811 30:1.0521 31:-0.334635 32:0.218289 33:-0.443567 34:0.0170937 35:-0.72018 36:0.580028 37:-0.356734 38:0.778236 39:0.0926214 40:-0.160216 
64.76829557527313 0 1:0.26232457 2:-0.39846578 3:0.05289673 4:0.01223462 5:0.29219145 6:0.18639798 7:-0.22777978 8:0.73767543 9:0.03418496 10:0.798182 11:0.598456 12:-2.49198 13:1.1141 14:0.239759 15:1.18618 16:-1.14653 17:0.62614 18:-0.165635 19:-1.17866 20:1.64398 21:-0.187552 22:-0.452228 23:0.657029 24:-1.50775 25:-0.427057 26:-0.409435 27:-0.640734 28:0.44118 29:-0.343998 30:0.460428 31:1.21963 32:0.711603 33:0.415633 34:0.698409 35:-0.0783042 36:-1.08253 37:-0.85235 38:-0.378242 39:0.531165 40:0.682313 
125.965517992494 0 1:0.67038327 2:-0.23845275 3:0.02543554 4:0.17142858 5:0.58745646 6:0.53658539 7:-0.42369339 8:0.32961673 9:0.24599303 10:3.87262 11:0.194614 12:-2.58963 13:0.331343 14:0.721326 15:1.16974 16:0.176502 17:0.0261478 18:0.815913 19:-1.09015 20:1.88431 21:-0.0231855 22:-1.09585 23:-0.267371 24:-0.816879 25:1.28206 26:-0.0275909 27:-0.682321 28:0.285189 29:0.796217 30:0.232742 31:0.282192 32:0.257869 33:0.606714 34:0.838373 35:-0.119453 36:0.693404 37:-0.624259 38:0.563652 39:-0.428988 40:-0.609982 
128 0 1:1 2:-0.21632601 3:0.17565425 4:0.12846947 5:0.94369549 6:0.59238702 7:-0.79064232 8:-0.21808089 9:0.20856462 10:4.90275 11:0.0259701 12:-2.35393 13:2.51209 14:0.758356 15:0.099732 16:0.0181468 17:0.0668656 18:0.889547 19:0.490271 20:-1.23284 21:-1.15995 22:-1.25301 23:-0.00361722 24:-0.383798 25:1.15655 26:0.573295 27:0.526625 28:-0.0794303 29:1.10828 30:-0.652222 31:0.903988 32:0.485605 33:0.316909 34:0.755663 35:0.349274 36:0.887311 37:0.559184 38:0.313542 39:0.085673 40:1.57906 
128 0 1:0.31004071 2:-0.2479253 3:0.09803256 4:0.60583448 5:1.0488467 6:0.85278153 7:-0.0339213 8:0.68995929 9:0.27544099 10:2.36717 11:-1.78586 12:0.00421979 13:1.62631 14:-0.716947 15:-0.67167 16:1.0146 17:0.434566 18:-0.166066 19:0.722811 20:0.560351 21:0.097601 22:0.258134 23:0.0888386 24:0.303407 25:1.51738 26:-0.0611944 27:-0.863364 28:-0.00765602 29:0.901712 30:-0.994168 31:-0.193591 32:-0.243442 33:0.263997 34:1.16234 35:-0.613964 36:0.500808 37:-0.559469 38:-0.272349 39:-0.440745 40:0.605924 
128 0 1:0.26157159 2:-0.34179306 3:0.00995694 4:0.73681378 5:1.088267 6:1.0683531 7:0.16415501 8:0.73842841 9:0.42518836 10:1.60568 11:-1.41922 12:-0.181693 13:1.27984 14:-0.76704 15:-1.02721 16:1.02242 17:0.440996 18:1.27937 19:-0.147695 20:0.322461 21:0.460808 22:0.264384 23:0.152382 24:0.0663574 25:1.08754 26:-0.169578 27:-0.485743 28:0.101482 29:0.537581 30:-1.35257 31:-0.0791423 32:-0.467167 33:0.128204 34:1.01575 35:-0.107085 36:0.234334 37:-0.566217 38:-0.345607 39:-0.461282 40:0.472037 
128 0 1:0.53545588 2:-0.39942113 3:-0.06512301 4:0.18451519 5:0.58538347 6:0.71562952 7:-0.20043415 8:0.46454415 9:0.3342981 10:2.39971 11:-1.68039 12:-1.68641 13:1.19266 14:-1.26895 15:-0.481985 16:1.59338 17:1.17478 18:0.704416 19:0.898878 20:1.0422 21:-0.119387 22:-0.236468 23:-0.0511891 24:-0.124914 25:0.410725 26:0.249448 27:-0.517584 28:-0.0280638 29:0.313223 30:0.0221548 31:-0.792918 32:-0.397111 33:0.750809 34:0.443304 35:-0.133028 36:-0.0848207 37:0.256641 38:-0.257813 39:-0.599056 40:-0.380847 
55.9663491066497 0 1:0.38258877 2:-0.5452463 3:0.00486827 4:0.9032073 5:1.220504 6:1.2107675 7:0.0910653 8:0.6174112 9:0.47308132 10:1.77324 11:-1.49507 12:-0.574022 13:1.15819 14:-1.15156 15:-0.679169 16:1.88202 17:0.835822 18:0.0614189 19:0.162111 20:0.57753 21:0.00114327 22:-0.0209459 23:-0.0756698 24:0.642942 25:1.51228 26:0.678878 27:-1.00246 28:-0.0980416 29:0.801649 30:-1.01895 31:-0.670119 32:-0.433466 33:0.126264 34:0.776518 35:0.164114 36:0.266592 37:-0.531042 38:0.0533955 39:-0.314442 40:0.292165 
128 0 1:0.42040038 2:-0.29547253 3:0.17731172 4:0.62535751 5:1.5243089 6:1.1696854 7:-0.38417542 8:0.57959962 9:0.03527169 10:3.656 11:-1.49227 12:-1.0114 13:2.25693 14:-0.95781 15:0.0138957 16:-0.841868 17:0.645955 18:0.691765 19:0.464585 20:0.25535 21:-0.516061 22:-0.257785 23:0.44934 24:1.03249 25:0.846442 26:0.83933 27:-1.02863 28:0.671563 29:0.835827 30:0.213938 31:0.269113 32:0.37044 33:0.215819 34:0.377183 35:0.828079 36:-0.1132 37:-1.09527 38:-0.293075 39:0.543722 40:0.322589 
67.18795399073235 0 1:0.43503556 2:-0.42769989 3:0.09502263 4:0.6916613 5:1.0917906 6:0.90174532 7:0.07627667 8:0.56496447 9:0.51066583 10:1.92351 11:-1.68598 12:-0.331234 13:1.44959 14:-1.14125 15:-1.29614 16:1.22523 17:0.392898 18:1.22239 19:-0.10779 20:0.30059 21:0.691029 22:0.251722 23:-0.0930521 24:0.198125 25:0.896357 26:-0.230117 27:-1.06157 28:-0.2126 29:1.00736 30:-1.3597 31:-0.316591 32:-0.834003 33:0.0248684 34:1.21742 35:-0.32587 36:0.792379 37:-0.69635 38:-0.0250169 39:-0.216669 40:0.525466 
128 24.29553750683231 1:0.80106664 2:-0.05130586 3:-0.17333333 4:0.06133333 5:0.12533334 6:0.472 7:-0.33919999 8:0.19893333 9:0.46133333 10:1.26918 11:0.112808 12:-2.09871 13:0.486867 14:0.253558 15:-0.185872 16:0.538015 17:-0.164199 18:0.354462 19:1.24557 20:-0.546175 21:0.177217 22:-0.478081 23:-1.11374 24:0.669334 25:-0.985665 26:0.398691 27:0.563827 28:0.0917019 29:-0.13413 30:0.787165 31:-0.542132 32:-0.149197 33:-0.615155 34:0.041427 35:-0.0869575 36:-0.0990658 37:0.0791018 38:-0.443565 39:-0.0873122 40:-0.419431 
63.81903055511692 0 1:0.26237386 2:-0.51694322 3:0.11460836 4:0.21816434 5:0.58769822 6:0.3584815 7:0.19173475 8:0.73762614 9:0.45362806 10:1.49348 11:-0.720521 12:-2.73743 13:1.66351 14:-0.441414 15:-0.175307 16:1.22479 17:0.727949 18:1.23866 19:0.083494 20:-0.0141264 21:0.67766 22:-0.0703604 23:-0.159557 24:0.357327 25:-0.394177 26:-1.19422 27:-0.382374 28:1.29369 29:0.711703 30:-0.405014 31:-0.274473 32:-0.181275 33:-0.891226 34:0.709605 35:-0.336313 36:-0.0731066 37:-0.101209 38:0.279478 39:-1.04095 40:-1.02175 
128 0 1:0.16871037 2:-0.72699171 3:0.11902748 4:0.36236787 5:0.6875264 6:0.44947144 7:0.35095137 8:0.83128965 9:0.51923889 10:0.953247 11:-0.603462 12:-2.23964 13:1.12612 14:-1.15051 15:0.225357 16:1.74654 17:0.823718 18:0.553177 19:0.461841 20:0.139584 21:0.119382 22:-0.629639 23:-0.218752 24:-0.128581 25:-0.204518 26:-0.401469 27:-1.04457 28:0.115262 29:0.21402 30:-0.191726 31:-1.23363 32:0.0346891 33:-0.0285463 34:0.0285961 35:-0.685782 36:-0.656529 37:0.636665 38:0.125933 39:-0.914048 40:-1.02296 
105.1011146646964 0 1:0.25499526 2:-0.80793822 3:0.05637488 4:0.67411989 5:0.94291151 6:0.83016175 7:0.46098953 8:0.74500477 9:0.71550906 10:0.9018 11:-0.626824 12:-0.994831 13:0.660081 14:-0.921275 15:-0.0206883 16:1.94288 17:0.847511 18:-0.0227287 19:0.235093 20:0.277251 21:-0.0893993 22:-0.347718 23:0.0131609 24:0.654892 25:0.935656 26:0.596124 27:-1.00511 28:-0.114171 29:0.74824 30:-0.825454 31:-0.917844 32:-0.679668 33:0.110541 34:0.625633 35:0.181776 36:-0.0386939 37:-0.0226771 38:0.212952 39:-0.322818 40:-0.0654117 
86.43348155825615 0 1:0.86044365 2:-0.22572042 3:0.03465804 4:0.22273567 5:0.67005545 6:0.60073936 7:-0.85951942 8:0.13955638 9:0 10:3.74158 11:0.524219 12:-3.68942 13:2.2029 14:-1.67476 15:-0.0169365 16:0.764564 17:1.01162 18:0.241518 19:1.32061 20:0.570377 21:-0.130617 22:-0.151182 23:0.560167 24:0.921597 25:0.215564 26:0.112547 27:0.609032 28:1.13754 29:-0.932234 30:-1.24693 31:-0.539372 32:0.187604 33:-0.675847 34:0.349008 35:-0.289065 36:0.119662 37:0.310023 38:1.22896 39:0.0682968 40:-0.0169163 
128 0 1:0.59183675 2:-0.17306136 3:-0.06176155 4:0.09022556 5:0.52094519 6:0.64446831 7:-0.28034371 8:0.40816328 9:0.3104189 10:3.87762 11:0.181814 12:-3.09537 13:1.15877 14:0.437363 15:1.43122 16:0.155893 17:0.414247 18:-0.165567 19:1.13881 20:0.406083 21:0.708342 22:-0.631081 23:-0.402995 24:1.55411 25:-0.813151 26:-1.46557 27:-0.207734 28:0.321659 29:0.187281 30:1.42392 31:-1.3133 32:0.168767 33:0.365053 34:0.46266 35:0.0525352 36:0.594397 37:0.682171 38:0.0761216 39:-0.892479 40:-0.0727704 
80.16704910190187 0 1:0.73379308 2:-0.44309166 3:-0.3337931 4:-0.08 5:0.42206895 6:1.0896552 7:-0.25241378 8:0.26620689 9:0.47999999 10:2.33932 11:-0.860573 12:-1.13333 13:-1.34509 14:-0.68128 15:1.41063 16:-0.270884 17:0.618124 18:1.59637 19:1.45418 20:-1.07 21:-0.628569 22:-0.722014 23:0.341287 24:-0.56351 25:-0.341609 26:-0.0750015 27:0.674131 28:-0.133682 29:-0.363584 30:0.187747 31:-0.582204 32:1.38474 33:-0.264852 34:0.799052 35:-0.467569 36:-1.32132 37:0.545631 38:0.0690242 39:0.607023 40:-0.711274 
128 0 1:0.57840234 2:-0.31669301 3:0.05695266 4:0.28550297 5:0.98964494 6:0.87573963 7:-0.28106508 8:0.42159763 9:0.295858 10:4.04736 11:-1.5003 12:-0.357575 13:1.3081 14:-1.01125 15:0.875335 16:0.378268 17:1.06524 18:0.253887 19:1.03083 20:0.402422 21:0.969906 22:0.158002 23:-0.406808 24:-1.65021 25:0.67925 26:0.603818 27:-0.369879 28:0.526542 29:-0.861399 30:0.316565 31:-0.536121 32:0.123545 33:-0.703217 34:0.792782 35:0.235314 36:0.850627 37:0.055541 38:0.659302 39:-0.467316 40:-0.164167 
128 0 1:0.43318966 2:-0.00275342 3:0.10290948 4:0.1325431 5:0.74245691 6:0.5366379 7:-0.43965518 8:0.55926722 9:-0.0075431 10:2.98138 11:-0.573188 12:-2.93627 13:2.07948 14:-1.44988 15:1.25856 16:0.0544259 17:-0.131502 18:-0.0401282 19:-0.0868719 20:1.09713 21:-0.255765 22:-1.45823 23:1.10519 24:-0.36782 25:0.370707 26:-0.111272 27:0.779416 28:-0.904766 29:0.349473 30:1.94539 31:-0.263699 32:-0.88647 33:-0.489913 34:1.03652 35:0.0579006 36:0.62978 37:-0.00948152 38:-0.579935 39:0.342073 40:-0.386909 
128 0 1:0.54476303 2:-0.34540942 3:-0.15476887 4:0.17203043 5:0.27911058 6:0.58864832 7:-0.30953774 8:0.45523697 9:0.23464014 10:2.36299 11:-0.330683 12:-3.09988 13:-0.561392 14:-0.715371 15:-0.21509 16:-0.250326 17:0.320813 18:0.25233 19:1.29824 20:0.302656 21:0.930519 22:-0.106819 23:0.0872017 24:0.8232 25:0.277525 26:1.14608 27:-0.439621 28:-0.090769 29:-0.0804379 30:0.434468 31:1.17552 32:-0.188303 33:-1.01133 34:-0.316034 35:-0.211761 36:-0.294881 37:-0.338189 38:0.778216 39:0.0339228 40:0.326686 
128 0 1:0.42184964 2:-0.37493822 3:-0.03380205 4:0.58896703 5:0.91725254 6:0.98485667 7:0.00594916 8:0.57815033 9:0.42725798 10:1.97367 11:-1.35641 12:-1.22113 13:1.0525 14:-0.91092 15:-1.04824 16:1.59935 17:0.62955 18:0.32144 19:0.204471 20:-0.626215 21:0.30709 22:-0.0455318 23:0.423613 24:0.590729 25:1.33168 26:0.10412 27:-0.503621 28:0.403029 29:0.234449 30:-1.00585 31:-0.137658 32:-0.219976 33:-0.31036 34:-0.0211911 35:0.439622 36:-0.263352 37:-0.402179 38:0.00601438 39:-0.307623 40:-0.0798331 
128 0 1:0.59673202 2:-0.16952263 3:-0.06078431 4:0.09934641 5:0.49607843 6:0.61764705 7:-0.28823531 8:0.40326798 9:0.30784315 10:3.39903 11:-0.3334 12:-1.11222 13:0.119202 14:-1.83082 15:1.77257 16:0.461387 17:0.787755 18:1.44485 19:1.29427 20:-0.377097 21:-0.347308 22:-0.619985 23:-0.121048 24:0.549397 25:0.590456 26:1.39296 27:-1.60121 28:0.30153 29:0.0401211 30:-0.681225 31:-0.0346978 32:0.292775 33:-0.211045 34:-0.164074 35:-1.10993 36:-0.161544 37:0.192911 38:0.0105121 39:-0.984344 40:-0.870873 
55.8592841997995 0 1:0.17834793 2:-0.35041255 3:0.01345432 4:0.18022528 5:0.32165205 6:0.29474342 7:-0.19211514 8:0.80757195 9:-0.0140801 10:0.915764 11:0.900632 12:-2.67097 13:0.876265 14:-0.412642 15:0.388481 16:-1.04069 17:1.13764 18:-0.302365 19:-0.736988 20:1.41729 21:-0.256875 22:-0.48848 23:0.733852 24:-0.507596 25:-0.662441 26:0.0322238 27:0.0565021 28:0.0680439 29:-0.982643 30:0.126378 31:1.4115 32:0.12834 33:-0.541507 34:0.696174 35:-0.380287 36:-0.174865 37:0.205071 38:-0.209042 39:0.516737 40:0.564204 
128 0 1:0.52545828 2:-0.01352602 3:-0.03801765 4:0.12763068 5:0.51934826 6:0.59538358 7:-0.48811948 8:0.47454175 9:0.03665988 10:4.15042 11:-0.963274 12:-2.66512 13:0.0491837 14:-2.15888 15:-0.521632 16:0.524819 17:0.74586 18:0.770293 19:0.153636 20:-1.07691 21:-0.628309 22:-0.015923 23:-0.402966 24:-0.800046 25:0.471785 26:0.180336 27:-0.781421 28:0.193158 29:-0.0749264 30:0.475587 31:0.0910444 32:1.00244 33:-0.238816 34:-0.398365 35:-1.093 36:0.928116 37:1.15299 38:0.126752 39:-0.937208 40:-0.50863 
128 0 1:0.56068909 2:-0.25489429 3:0.02192639 4:0.14565387 5:0.6319499 6:0.5880971 7:-0.48942834 8:0.43931088 9:0.07047768 10:2.65528 11:0.434765 12:-3.0797 13:-0.0808808 14:-2.03668 15:0.732109 16:0.366754 17:0.101172 18:-0.451286 19:0.820272 20:0.0172514 21:0.696712 22:0.423951 23:0.126698 24:-1.05815 25:-1.03381 26:0.386812 27:0.308813 28:-0.348219 29:0.362627 30:0.445909 31:0.583678 32:-0.802711 33:-1.0448 34:-0.297038 35:0.0969132 36:-0.178562 37:0.402245 38:-1.09466 39:0.0486231 40:-0.239997 
128 0 1:0.88245171 2:-0.36818743 3:-0.16876574 4:0.21158691 5:0.63308144 6:0.97061294 7:-0.33081445 8:0.11754828 9:0.55079764 10:2.69489 11:0.396217 12:-2.55727 13:-0.575029 14:0.781384 15:0.200123 16:-0.0861702 17:-0.00565502 18:0.971701 19:0.163471 20:0.649951 21:0.286941 22:-0.463898 23:-0.540547 24:0.260787 25:0.085588 26:-1.44318 27:-1.56599 28:-1.27326 29:0.583074 30:-0.323269 31:-0.855693 32:0.122713 33:0.363056 34:-0.756471 35:-0.392487 36:0.795253 37:0.451334 38:0.379204 39:-0.0999969 40:0.278212 
50.30777654925348 0 1:0.79954439 2:-0.37412912 3:-0.06093394 4:0.06378132 5:0.36275625 6:0.48462415 7:-0.19589977 8:0.20045558 9:0.60307515 10:2.16888 11:-0.256585 12:-3.83792 13:-0.687823 14:0.325151 15:-0.629592 16:0.599618 17:0.390018 18:0.762374 19:-0.0477883 20:0.998158 21:0.445703 22:-0.0796061 23:0.549215 24:0.996672 25:0.468388 26:-0.818969 27:-1.11332 28:-0.713771 29:-0.336088 30:0.852022 31:0.18812 32:0.197899 33:-1.49964 34:-0.54536 35:0.409111 36:0.544945 37:-1.54298 38:0.65878 39:0.281188 40:-0.141279 
128 0 1:0.45027214 2:-0.36625707 3:0.14423552 4:0.34636319 5:0.77634835 6:0.48787728 7:-0.04255319 8:0.54972786 9:0.40722415 10:2.62647 11:-0.930106 12:-1.63117 13:1.64645 14:-0.199817 15:-0.210191 16:1.05275 17:0.73712 18:-1.2337 19:1.31643 20:-0.244052 21:0.200526 22:-0.120554 23:-0.213382 24:1.1017 25:0.348983 26:-0.0950936 27:-1.26349 28:1.32614 29:1.06999 30:-0.182827 31:-0.485826 32:-0.479802 33:-1.11944 34:0.404397 35:-0.979924 36:1.16738 37:-0.115838 38:-0.120479 39:-0.430905 40:-0.0482318 
128 0 1:0.13461539 2:-0.36983189 3:0.25591716 4:0.07593688 5:0.73175544 6:0.2199211 7:-0.51479292 8:0.484714 9:-0.38067061 10:1.60719 11:-0.131211 12:-2.64161 13:1.66797 14:-0.6827 15:0.703227 16:-0.572632 17:-1.38933 18:-0.54185 19:-0.405024 20:-0.401343 21:-1.00692 22:-0.134863 23:0.764282 24:-0.500655 25:-0.652708 26:-1.62875 27:0.772333 28:-0.947646 29:0.380784 30:0.0121219 31:0.0405011 32:-0.37054 33:0.510052 34:-0.273295 35:0.391719 36:0.646797 37:0.882855 38:0.429385 39:0.984199 40:0.0841226 
128 0 1:0.5714286 2:-0.31753421 3:0.0788761 4:0.64454979 5:1.5511172 6:1.3933649 7:-0.44211239 8:0.42857143 9:0.12863913 10:3.78699 11:-1.9892 12:0.110945 13:1.65017 14:-1.19785 15:0.121613 16:-0.00374114 17:0.472773 18:-0.675341 19:1.45866 20:0.0865058 21:0.1771 22:-0.0571736 23:-0.241182 24:-0.467835 25:1.10564 26:0.264197 27:-1.04582 28:0.1328 29:-0.118881 30:-0.577004 31:-0.0417033 32:0.77167 33:-0.369564 34:0.170855 35:0.196313 36:-0.184447 37:-0.321354 38:0.90869 39:0.00394731 40:-0.20016 
39.83524341124721 2.717771050784753 1:0.79561085 2:-0.11403518 3:0.01752375 4:-0.11824435 5:0.3432689 6:0.30822143 7:-0.26695055 8:0.20438913 9:0.52833277 10:3.26857 11:-0.977303 12:-3.49177 13:0.780811 14:0.935153 15:1.86661 16:0.630494 17:0.537067 18:0.794459 19:-0.602505 20:-1.02081 21:-0.725181 22:-0.149399 23:-0.964761 24:0.52869 25:-1.29404 26:-0.46874 27:-0.690416 28:-0.759672 29:-1.14671 30:0.661082 31:-0.139286 32:1.08615 33:0.0155542 34:-0.606259 35:0.0126327 36:-0.613921 37:-0.546728 38:1.50825 39:-0.00206384 40:-0.187121 
128 0 1:0.16180108 2:-0.81593102 3:0.03871845 4:0.35601187 5:0.64349329 6:0.56605643 7:0.50371104 8:0.8381989 9:0.66526473 10:0.572071 11:-0.284701 12:-1.48642 13:0.499901 14:-0.817884 15:0.294389 16:1.64627 17:0.898989 18:-0.0785778 19:0.293318 20:0.349079 21:0.177607 22:-0.515068 23:-0.58499 24:0.323978 25:-0.292597 26:0.0759933 27:-0.914489 28:0.0459941 29:0.439602 30:0.0932809 31:-0.958404 32:-0.586131 33:-0.110801 34:0.55712 35:-0.493613 36:0.0479111 37:0.284145 38:0.425342 39:-0.578494 40:-0.367423 
128 0 1:0.32760969 2:-0.57221133 3:0.07604252 4:0.11229218 5:0.42899972 6:0.27691469 7:0.30389753 8:0.67239028 9:0.63123465 10:0.684044 11:-0.46508 12:-2.32253 13:0.761796 14:-0.583121 15:0.460424 16:1.50343 17:0.985764 18:0.32679 19:0.477833 20:0.2141 21:-0.304777 22:-0.825623 23:-0.826017 24:0.326645 25:-0.00181284 26:0.00228781 27:-0.532594 28:0.107376 29:0.0272799 30:0.611817 31:-0.676223 32:0.45362 33:0.0600109 34:0.128291 35:-0.398744 36:-0.915909 37:0.684185 38:0.349277 39:-0.569842 40:-0.695459 
128 0 1:0.51330107 2:-0.42262927 3:0.13966143 4:0.05169287 5:0.66354293 6:0.38422006 7:-0.47067714 8:0.48669893 9:0.04232164 10:3.12695 11:-0.0465633 12:-0.9166 13:1.2327 14:-1.73888 15:0.114106 16:0.913499 17:0.108247 18:0.713584 19:0.377393 20:0.534672 21:0.321563 22:0.752964 23:0.199319 24:0.126805 25:-0.622909 26:-0.482688 27:-1.07005 28:0.633529 29:1.39561 30:-1.20292 31:0.867362 32:-0.101 33:-0.131053 34:0.220305 35:-0.722408 36:0.207149 37:-0.41884 38:-0.950226 39:0.700381 40:0.204061 
92.93858933319524 0 1:0.520114 2:-0.50326592 3:0.17738359 4:-0.1286031 5:0.63858092 6:0.28381374 7:-0.06651885 8:0.47988597 9:0.45327842 10:1.16635 11:-0.953607 12:-2.98702 13:0.722049 14:-0.357381 15:0.427268 16:0.640619 17:0.459201 18:-0.0820577 19:0.634347 20:0.758288 21:0.778327 22:0.115472 23:-0.4987 24:0.806651 25:-0.905635 26:-0.470373 27:-0.0391734 28:0.231618 29:1.22656 30:0.665297 31:-0.128 32:-0.327512 33:-0.244691 34:0.114676 35:-0.176872 36:-0.151289 37:-0.938447 38:0.116386 39:-0.101277 40:-0.690083 
20.8443811302078 0 1:0.35241273 2:-0.38583067 3:-0.26334703 4:-0.02643737 5:0.29132444 6:0.8180185 7:-0.01232033 8:0.64758724 9:0.33983573 10:1.6584 11:-1.16204 12:-3.79817 13:0.425602 14:0.657651 15:-0.195404 16:-0.38648 17:-0.39129 18:0.959211 19:0.829529 20:0.853525 21:-0.292887 22:0.987233 23:1.51427 24:0.427515 25:1.06683 26:-0.771939 27:0.13191 28:0.231224 29:-0.197517 30:0.767188 31:0.384803 32:-0.857015 33:-0.427021 34:0.286082 35:0.999098 36:-0.583935 37:-0.233783 38:-0.165396 39:0.261142 40:0.981575 
128 0 1:0.74930364 2:-0.12123248 3:-0.00069638 4:-0.15181059 5:0.42896935 6:0.43036211 7:-0.42014855 8:0.25069639 9:0.3286908 10:2.74927 11:-1.09003 12:-1.72266 13:0.956008 14:0.624173 15:0.891197 16:0.0222771 17:0.481418 18:-1.07778 19:-0.090235 20:-0.989825 21:-0.498921 22:0.150424 23:0.275608 24:-1.16554 25:-1.33589 26:0.363195 27:-0.725098 28:0.607037 29:1.00328 30:-0.190667 31:0.540052 32:0.301447 33:-0.788559 34:-0.744459 35:-0.276474 36:-0.0770604 37:1.39894 38:0.362303 39:0.855146 40:1.39736 
128 0 1:0.58784992 2:-0.23942824 3:0.17421085 4:0.47885647 5:1.4526504 6:1.1042287 7:-0.52054793 8:0.41215008 9:0.06670637 10:4.27165 11:-0.728462 12:-0.545565 13:1.98732 14:-1.10882 15:1.81935 16:-0.0717253 17:0.329554 18:1.04492 19:0.25722 20:0.180744 21:1.17275 22:-0.698908 23:0.41117 24:-0.685272 25:0.864776 26:0.377639 27:0.09775 28:1.30251 29:0.792934 30:0.195957 31:0.595468 32:0.0735898 33:-0.984081 34:0.673498 35:-0.0253463 36:0.860793 37:-0.219704 38:-0.939494 39:0.971138 40:0.894394 
98.78344425165993 0 1:0.37601295 2:-0.47208983 3:-0.03180713 4:0.80794168 5:1.4704214 6:1.5340357 7:-0.01053485 8:0.62398702 9:0.36507294 10:3.03582 11:-2.18166 12:0.128065 13:1.83312 14:-0.630874 15:-1.04296 16:0.394523 17:0.0882243 18:-0.460516 19:1.11149 20:0.0428267 21:0.77082 22:0.295755 23:0.326125 24:-0.228551 25:0.453636 26:-0.84617 27:-1.13608 28:-0.131424 29:0.0434025 30:-1.21221 31:-0.320344 32:-0.287269 33:-0.111028 34:0.579845 35:0.756316 36:0.86748 37:-0.577736 38:-0.285402 39:0.062653 40:1.122 
128 14.0321300863098 1:0.85486627 2:-0.10175481 3:0.31787136 4:0.00512237 5:0.96585089 6:0.33010814 7:-0.59931701 8:0.14513375 9:0.25498009 10:3.36466 11:-0.755986 12:-0.295085 13:2.78513 14:-0.543554 15:-0.229172 16:1.10565 17:0.623077 18:0.125749 19:-0.220379 20:-0.497185 21:0.4223 22:0.347452 23:-0.973721 24:1.83368 25:-0.671209 26:0.740053 27:-0.792047 28:-1.02123 29:0.730784 30:1.65416 31:-0.830505 32:0.701519 33:-0.0472127 34:-0.399782 35:-1.03476 36:-0.370888 37:0.225148 38:0.33559 39:-0.433358 40:0.56852 
128 36.36150151112157 1:1 2:0.06049589 3:0.15445976 4:0.2697607 5:1.0638144 6:0.75489485 7:-0.92820883 8:-0.00362582 9:0.07106599 10:3.13418 11:1.6689 12:-1.31576 13:0.445877 14:0.642319 15:0.61267 16:-0.201148 17:-1.02029 18:0.545331 19:-0.264907 20:0.919203 21:-0.820365 22:0.756905 23:-2.19508 24:-0.768255 25:-0.305858 26:0.333937 27:1.01438 28:0.0844632 29:0.488749 30:-0.08523 31:-0.38934 32:1.43634 33:-1.67059 34:0.763971 35:0.462007 36:-0.596687 37:0.43384 38:-0.945702 39:0.19186 40:-0.223744 
73.84967942982725 0 1:0.11254852 2:-0.55927461 3:0.06554549 4:-0.16774471 5:0.1800345 6:0.04894351 7:0.09163433 8:0.88745147 9:0.20396723 10:0.424495 11:0.347095 12:-1.755 13:1.35284 14:0.760169 15:1.16489 16:-0.761849 17:0.731193 18:0.0603146 19:-0.925159 20:1.16509 21:-0.170882 22:-0.184862 23:0.116859 24:-1.07307 25:-0.134713 26:-0.112963 27:-0.525189 28:0.671928 29:0.0143205 30:0.461703 31:0.609432 32:0.360476 33:0.455955 34:0.359414 35:0.187047 36:-0.959339 37:-0.803123 38:-0.297161 39:-0.10528 40:-0.173014 
128 0 1:0.28528973 2:-0.33029616 3:0.07280832 4:0.17087667 5:0.62852895 6:0.48291233 7:-0.33692423 8:0.66270429 9:-0.05200594 10:2.49923 11:0.169896 12:-3.00318 13:0.63527 14:-1.98022 15:0.104789 16:0.386259 17:-0.33126 18:-1.04616 19:0.310726 20:-0.990491 21:0.666022 22:0.978646 23:0.148339 24:-0.0150746 25:0.165035 26:1.40467 27:0.7127 28:-0.138213 29:0.0525175 30:-0.583248 31:0.785167 32:-0.193893 33:-1.15263 34:-0.592879 35:0.35231 36:0.319614 37:0.466102 38:-0.466515 39:0.626641 40:-0.0604871 
128 0 1:0.5900234 2:-0.35933924 3:-0.13951676 4:-0.12236945 5:0.624318 6:0.90335155 7:-0.28371006 8:0.40997663 9:0.30553392 10:2.26028 11:-1.642 12:-1.89915 13:-1.21815 14:0.425971 15:0.258546 16:-0.0259929 17:-0.286492 18:-0.416654 19:1.75138 20:1.24675 21:0.151533 22:0.16752 23:0.576587 24:-0.116062 25:0.759504 26:-1.54634 27:-1.36289 28:-0.477513 29:-0.576641 30:0.107765 31:0.125345 32:-0.503256 33:-0.962462 34:-0.0787905 35:-0.120384 36:-0.930994 37:0.202738 38:0.132724 39:-0.480039 40:1.29133 
128 0 1:1 2:-0.27489933 3:-0.04089506 4:-0.09825103 5:0.56893003 6:0.65072018 7:-0.46965021 8:-0.07047325 9:0.5298354 10:4.62652 11:-1.2438 12:-1.30209 13:-0.708338 14:0.818393 15:-0.733396 16:-0.237566 17:-1.05939 18:0.777416 19:1.65424 20:1.00395 21:-0.2637 22:0.240848 23:0.97203 24:0.0896754 25:-0.391357 26:-0.809139 27:-1.23114 28:0.422246 29:0.426474 30:0.268729 31:-0.727768 32:1.01918 33:-0.443519 34:-1.39639 35:0.175895 36:-0.281437 37:-0.401433 38:-0.298448 39:0.524709 40:-0.747035 
128 0 1:0.27583697 2:-0.81074035 3:0.00800582 4:0.44832605 5:0.73393637 6:0.71792471 7:0.43387398 8:0.72416306 9:0.70960701 10:0.788405 11:-0.400714 12:-1.36618 13:0.577625 14:-0.784806 15:0.027463 16:1.95229 17:0.785361 18:0.153838 19:0.382609 20:-0.0550832 21:-0.0148256 22:-0.67467 23:-0.536939 24:0.396545 25:0.244558 26:0.274073 27:-1.11796 28:-0.0535 29:0.402108 30:-0.143624 31:-1.1248 32:-0.120868 33:-0.29163 34:0.198386 35:-0.588681 36:-0.295495 37:0.581642 38:0.382723 39:-0.636262 40:-0.436351 
76.18048649786431 0 1:0.49204841 2:-0.22030838 3:0.18632804 4:-0.01068122 5:0.782103 6:0.40944695 7:-0.42416331 8:0.50795156 9:0.06764776 10:3.60521 11:0.233705 12:-1.40112 13:2.41507 14:-0.516609 15:1.41623 16:-1.68007 17:-0.471215 18:0.299546 19:-0.808212 20:0.801152 21:-0.0246362 22:-0.244887 23:0.811517 24:-1.4402 25:0.00728951 26:1.79014 27:-0.219043 28:-0.112503 29:0.441106 30:-0.397566 31:0.658608 32:-0.963921 33:-0.316419 34:0.651949 35:0.405083 36:0.88192 37:0.0227487 38:1.31208 39:-0.0905895 40:1.26882 
128 65.27748245993259 1:0.22057614 2:0.01352579 3:0.05843621 4:0.21481481 5:0.52181071 6:0.40493828 7:-0.8740741 8:0.12510288 9:-0.65432101 10:1.7627 11:3.11258 12:-2.20164 13:0.267328 14:-1.51447 15:0.305596 16:-1.4616 17:0.0262098 18:0.44302 19:0.455365 20:2.03096 21:-0.461838 22:0.902947 23:-0.101566 24:0.0523392 25:0.713979 26:-0.43974 27:0.258938 28:-0.140667 29:-0.400152 30:0.106446 31:-0.930128 32:0.10637 33:0.765191 34:-0.97216 35:-0.00361066 36:0.13757 37:-0.0370195 38:0.114409 39:-0.427845 40:-0.414595 
128 0.6220460607878724 1:0.40329218 2:-0.35344571 3:0.00329218 4:0.52263373 5:0.8296296 6:0.82304525 7:-0.60823047 8:0.39094651 9:-0.20576131 10:4.74535 11:-1.14161 12:0.270243 13:0.669528 14:-1.48553 15:-0.0456745 16:1.74666 17:-0.0238653 18:-1.29431 19:-0.979894 20:0.52009 21:-0.409945 22:0.715711 23:-0.216172 24:0.206288 25:0.184804 26:-0.413602 27:0.3275 28:1.30546 29:-0.406237 30:0.125666 31:-0.607838 32:0.413276 33:-0.701881 34:0.83765 35:0.70394 36:0.238385 37:0.738157 38:0.272342 39:-1.26459 40:-0.190225 
8.173176408063505 0 1:0.41610739 2:-0.38494727 3:0.00958773 4:0.07478428 5:0.44295302 6:0.42377755 7:-0.22914669 8:0.58389264 9:0.18600191 10:2.31098 11:-1.33729 12:-2.64499 13:0.743058 14:-1.44556 15:-0.263198 16:1.21384 17:0.354538 18:-1.0314 19:-0.0456552 20:0.302111 21:-0.201905 22:-1.33959 23:-0.837254 24:-0.865285 25:-1.00642 26:-0.720897 27:-0.951296 28:0.693437 29:0.270007 30:-0.505828 31:-0.170303 32:0.891021 33:0.613165 34:0.410458 35:-0.172588 36:0.198329 37:0.884203 38:-0.163333 39:-0.76728 40:-0.767237 
128 0 1:0.3602941 2:-0.42384455 3:0.08088236 4:0.69747901 5:1.1911764 6:1.0294118 7:-0.15126051 8:0.6397059 9:0.2079832 10:1.8727 11:-1.60115 12:-0.846077 13:1.37767 14:-1.26277 15:-0.968654 16:1.32098 17:0.70226 18:0.453252 19:0.503167 20:0.711122 21:0.160374 22:0.0964191 23:-0.0234379 24:-0.14396 25:1.14224 26:0.667895 27:-0.715274 28:-0.367946 29:0.143679 30:-0.304361 31:-0.931989 32:-0.450329 33:0.394708 34:0.485302 35:-0.221999 36:0.289736 37:-0.00689291 38:-0.41301 39:-0.389154 40:0.227084 
12.19170430275086 0 1:0.67413795 2:-0.37118426 3:0.09094828 4:0.22413793 5:0.70775861 6:0.5258621 7:-0.73793101 8:0.2612069 9:-0.06465517 10:3.4086 11:0.73252 12:-4.04843 13:0.464223 14:-2.13942 15:0.669393 16:0.10481 17:-0.113464 18:-0.559022 19:0.351242 20:-0.223206 21:0.0778398 22:1.19987 23:-0.517825 24:0.527463 25:-0.606524 26:1.00984 27:0.139568 28:0.0377657 29:-0.494708 30:-0.158483 31:-0.0860901 32:0.225561 33:0.780902 34:0.261386 35:-0.330877 36:-0.397701 37:0.410764 38:-0.053579 39:-0.911054 40:-1.26934 
103.6818654844778 0 1:0.61953354 2:-0.36131248 3:0.07725947 4:0.33965015 5:0.78571427 6:0.63119531 7:-0.24344024 8:0.38046646 9:0.37463558 10:2.50512 11:-0.68322 12:-1.73141 13:1.3642 14:-0.176465 15:0.598747 16:0.424071 17:1.04605 18:0.783148 19:0.931809 20:0.66 21:-0.156804 22:0.545989 23:0.341163 24:1.4262 25:0.00469733 26:1.39662 27:-0.160753 28:0.871724 29:0.301857 30:0.925041 31:-0.180098 32:0.0575228 33:-0.0332448 34:0.98959 35:0.283635 36:1.33231 37:-0.558666 38:0.200568 39:-0.247011 40:0.119024 
128 0 1:0.58139533 2:-0.30000001 3:0.03139535 4:0.24534884 5:0.57790697 6:0.51511627 7:-0.39883721 8:0.41860464 9:0.18139535 10:3.30095 11:0.723971 12:-1.76916 13:1.36587 14:-0.977375 15:0.841484 16:0.754074 17:-0.934276 18:0.152012 19:-0.901825 20:-0.374258 21:1.02832 22:-1.23897 23:-0.0602463 24:1.13187 25:1.15086 26:1.32198 27:-0.413145 28:0.409036 29:-0.330395 30:0.0634811 31:-0.456626 32:0.275716 33:0.724206 34:-0.0398018 35:0.270749 36:-0.540673 37:0.532349 38:0.602311 39:-0.214787 40:-0.00510937 
128 0 1:0.31203008 2:-0.49310777 3:-0.17669173 4:0.16666667 5:0.35839599 6:0.71177948 7:0.08145364 8:0.68796992 9:0.39223057 10:1.16742 11:-0.632686 12:-2.62304 13:-0.0329719 14:0.0623264 15:-0.174996 16:1.08469 17:0.564258 18:0.596542 19:0.614751 20:0.379295 21:0.562953 22:0.0788723 23:0.79189 24:-0.644455 25:0.0878348 26:-0.260365 27:-0.411571 28:-1.05595 29:-0.0776366 30:-0.00725383 31:-0.136392 32:-0.906508 33:0.026935 34:-0.2922 35:0.469254 36:-0.426489 37:0.474192 38:0.0212094 39:0.19307 40:1.0643 
120.5429797778444 0 1:0.78884465 2:-0.1237472 3:0.02290837 4:-0.1374502 5:0.37250996 6:0.32669324 7:-0.26095617 8:0.21115538 9:0.52689242 10:4.31024 11:-0.690196 12:-3.05245 13:0.941145 14:0.595124 15:1.65971 16:0.858147 17:0.689012 18:0.423527 19:0.394657 20:-1.06497 21:-0.254664 22:-0.443053 23:-0.840658 24:1.2377 25:-0.527002 26:-0.572059 27:-1.85606 28:-0.648483 29:-0.165199 30:0.260468 31:-1.01636 32:-0.077318 33:0.771027 34:-0.48269 35:-0.871128 36:0.0526102 37:0.412216 38:0.822383 39:-0.696377 40:0.105157 
128 0 1:0.60273975 2:-0.17868167 3:0.02354452 4:0.33989727 5:0.8416096 6:0.79452056 7:-0.25770548 8:0.39726028 9:0.34417808 10:3.33581 11:-1.15581 12:-1.79667 13:1.23178 14:-0.519315 15:-0.238564 16:0.722772 17:0.864596 18:0.182985 19:0.843032 20:-1.12221 21:0.0604121 22:0.213081 23:0.294998 24:0.552992 25:0.689555 26:1.30019 27:-0.456817 28:0.420246 29:0.20973 30:-0.75874 31:-1.02589 32:0.0898874 33:-0.305055 34:0.139084 35:0.478818 36:0.161594 37:0.281211 38:0.0636165 39:-0.313608 40:0.50593 
128 0 1:0.39600363 2:-0.51024103 3:0.11580382 4:0.11898274 5:0.7965486 6:0.56494099 7:-0.50772023 8:0.49137148 9:-0.11262488 10:1.55093 11:0.357074 12:-3.40643 13:1.19447 14:-0.54915 15:0.582812 16:-0.476014 17:0.516385 18:0.533353 19:-0.077901 20:1.45117 21:-0.480956 22:-0.327145 23:0.820997 24:0.463031 25:1.21952 26:0.772372 27:-0.93694 28:0.494813 29:-0.0832465 30:-1.28612 31:0.273665 32:0.902608 33:-0.51903 34:0.000929032 35:-0.230361 36:-0.609824 37:0.156678 38:0.488832 39:0.496559 40:-0.439129 
128 0 1:0.3087844 2:-0.42667028 3:0.05323869 4:1.3194321 5:1.7329192 6:1.6264418 7:-0.12688553 8:0.69121563 9:0.18101153 10:1.67094 11:-1.3265 12:0.787258 13:0.686668 14:-0.186708 15:-0.336895 16:-0.13056 17:0.33128 18:-1.1299 19:0.859645 20:1.07238 21:-0.287674 22:0.04123 23:-0.229938 24:-0.270634 25:0.439869 26:-0.523138 27:-0.0589972 28:-0.292215 29:-0.129379 30:-0.566053 31:-0.1375 32:-0.197982 33:-0.172596 34:0.748328 35:0.0989093 36:-0.0802728 37:-0.251123 38:0.579486 39:-0.502575 40:0.204983 
128 0 1:0.5714286 2:-0.43354037 3:0.03385093 4:0.61801243 5:0.97577637 6:0.90807456 7:-0.13229814 8:0.42857143 9:0.43850932 10:2.49503 11:-1.92984 12:0.515047 13:1.17092 14:-1.28715 15:-0.502609 16:0.172866 17:0.390968 18:0.733779 19:0.293374 20:-0.0574838 21:-0.23026 22:-0.0612487 23:-0.349461 24:-0.144283 25:0.410875 26:0.0717946 27:-1.06476 28:-0.200522 29:0.824855 30:-0.70021 31:-0.446769 32:0.311928 33:0.371878 34:0.908219 35:-0.841863 36:0.168798 37:-0.371033 38:0.102703 39:-0.626667 40:0.569955 
128 0 1:0.57702702 2:-0.40275219 3:0.01148649 4:0.06351351 5:0.29662162 6:0.27364865 7:-0.25743243 8:0.42297298 9:0.31891891 10:1.5786 11:0.0542876 12:-3.74582 13:-0.309442 14:-0.222985 15:1.17113 16:-0.512208 17:0.0709834 18:-0.247345 19:0.76871 20:0.817238 21:0.88615 22:-0.417905 23:0.0731605 24:-1.12227 25:-0.676538 26:0.035475 27:0.289063 28:0.756715 29:0.464804 30:1.64044 31:0.807624 32:0.470319 33:-0.0678282 34:0.878926 35:-0.321147 36:0.506829 37:0.0650541 38:-0.379894 39:-0.904737 40:-0.554175 
128 0 1:0.79255319 2:-0.46708429 3:-0.14095744 4:0.07978723 5:0.42021278 6:0.70212764 7:-0.09929078 8:0.20744681 9:0.6923759 10:2.93558 11:-1.33916 12:-2.61015 13:0.332623 14:-0.836849 15:-0.427162 16:0.739694 17:1.17717 18:1.03445 19:0.344482 20:0.0205936 21:0.444963 22:-1.01137 23:-0.981513 24:0.232875 25:-0.823622 26:-0.764325 27:-0.0744021 28:-0.0131178 29:0.617534 30:-0.227168 31:-0.470406 32:0.377094 33:-0.328184 34:0.34512 35:-0.15419 36:-0.0687426 37:0.259838 38:-0.00314071 39:-0.148794 40:-1.61708 
128 0 1:0.64754099 2:-0.25977728 3:-0.00186289 4:0.16467959 5:0.4299553 6:0.43368107 7:-0.35245901 8:0.35245901 9:0.29433683 10:2.31717 11:1.11652 12:-2.09443 13:0.201575 14:0.303273 15:0.991523 16:-1.25452 17:0.118137 18:-0.186234 19:-0.599478 20:0.125096 21:0.970509 22:-1.21129 23:0.359168 24:-0.13811 25:-0.561784 26:0.693571 27:-0.375384 28:0.477966 29:-0.436391 30:0.562828 31:0.339203 32:1.35171 33:0.787099 34:1.26479 35:0.510195 36:0.125929 37:0.228062 38:0.135276 39:0.141865 40:-0.110925 
128 26.65277623917473 1:0.27380952 2:-0.20015946 3:-0.02480159 4:1.0138888 5:1.2519841 6:1.3015873 7:-0.75396824 8:0.24503969 9:-0.48115081 10:2.30335 11:-1.40652 12:1.08794 13:0.67992 14:-2.08326 15:-0.142197 16:0.106114 17:-0.321229 18:0.484197 19:-0.54781 20:1.07848 21:-1.04969 22:-0.0388469 23:-0.549996 24:-0.163172 25:-0.00980588 26:-0.479195 27:0.130905 28:0.159283 29:0.963186 30:0.0439719 31:0.0441717 32:-0.0470928 33:0.615711 34:0.488615 35:-0.541679 36:0.422149 37:-0.394167 38:-0.108854 39:0.0348037 40:-0.0574204 
30.88246477866046 0 1:0.29516399 2:-0.30702659 3:0.00944969 4:0.131184 5:0.43190661 6:0.41300723 7:-0.3418566 8:0.65758753 9:-0.04724847 10:1.84558 11:0.979962 12:-3.91093 13:0.740095 14:-1.11374 15:0.493543 16:-0.35434 17:0.877821 18:-0.330694 19:0.130053 20:0.75114 21:0.329876 22:-0.0419498 23:0.72031 24:-0.23252 25:-0.650703 26:0.264344 27:1.26948 28:0.918595 29:-1.21153 30:0.0731907 31:0.494849 32:0.0335023 33:-0.540248 34:0.368911 35:-0.687752 36:0.60509 37:1.07997 38:-0.21081 39:0.695907 40:0.757879 
128 0 1:0.74568141 2:-0.34480715 3:0.06429943 4:0.28982726 5:0.74760079 6:0.61900192 7:-0.68426102 8:0.25431862 9:0.06046065 10:3.07515 11:0.268374 12:-3.52499 13:1.31083 14:-1.03619 15:0.186849 16:0.247953 17:-0.0108099 18:0.511222 19:1.10057 20:-0.331703 21:0.86788 22:0.109169 23:-0.520992 24:1.05902 25:-0.087953 26:0.656745 27:0.407853 28:0.362964 29:-0.0423641 30:-0.250514 31:0.433972 32:0.378515 33:0.509862 34:-0.407947 35:0.326497 36:-1.27036 37:-0.00888899 38:-0.46619 39:-0.681046 40:-0.438104 
128 0 1:0.75418997 2:-0.4776791 3:-0.29050279 4:0.52141529 5:0.85102421 6:1.4320298 7:-0.48789573 8:0.24581006 9:0.26443204 10:5.08413 11:-1.69461 12:-1.24363 13:-1.412 14:-0.997757 15:0.701103 16:0.239333 17:0.624208 18:0.99239 19:0.376573 20:-0.252819 21:-0.268684 22:-1.16561 23:0.167639 24:-0.631178 25:1.40237 26:-0.775664 27:-0.867727 28:-0.87162 29:-0.202425 30:0.436299 31:-0.303993 32:-0.679052 33:-0.121355 34:0.37482 35:-0.294438 36:-0.616097 37:0.519175 38:0.695695 39:-1.16248 40:0.765772 
128 0 1:0.4893617 2:-0.30883893 3:0.11648936 4:0.1319149 5:0.8148936 6:0.5819149 7:-0.36063829 8:0.5106383 9:0.12765957 10:3.73896 11:-0.801832 12:-0.662309 13:1.115 14:-2.45704 15:0.437298 16:1.08287 17:1.48728 18:0.97808 19:0.573902 20:-0.0971218 21:0.00053025 22:0.0998244 23:-0.193745 24:-0.244259 25:-0.603521 26:0.625625 27:-0.105182 28:0.453387 29:-0.420129 30:0.392493 31:-0.615161 32:-0.245193 33:-1.07943 34:1.02443 35:-0.409982 36:0.215587 37:0.533584 38:-1.12126 39:-0.0932318 40:0.119607 
128 0 1:0.48336872 2:-0.452645 3:-0.11712668 4:0.1104034 5:0.19462137 6:0.42887473 7:-0.09483369 8:0.51663131 9:0.38782731 10:1.10367 11:-0.292504 12:-3.09713 13:-0.383728 14:0.433417 15:0.338839 16:-0.370705 17:0.771941 18:0.37233 19:0.324194 20:0.990699 21:0.0812831 22:-0.559684 23:0.408989 24:0.392106 25:-0.406219 26:0.120944 27:0.499287 28:-0.0548297 29:-0.376713 30:0.30863 31:0.923151 32:0.674741 33:0.114263 34:0.850241 35:-0.00667155 36:0.851708 37:-0.167044 38:-0.349936 39:0.443978 40:-0.656953 
87.71504900631075 0 1:0.89481705 2:-0.44201177 3:-0.38643292 4:-0.09984756 5:0.16844513 6:0.941311 7:-0.12804878 8:0.10518292 9:0.76600611 10:1.9277 11:-2.36543 12:-1.82338 13:-2.39608 14:-0.561777 15:-0.849858 16:-1.1997 17:-1.2272 18:1.03131 19:1.23969 20:0.666265 21:-0.0818607 22:-0.129641 23:0.494135 24:0.4429 25:0.550577 26:-0.113131 27:-0.125086 28:1.13879 29:0.357355 30:0.992391 31:-0.915484 32:0.10258 33:-0.986926 34:0.614183 35:1.01434 36:-0.138734 37:0.679293 38:-0.609835 39:0.857618 40:-0.59079 
128 0 1:0.39633027 2:-0.49163112 3:-0.14541285 4:0.82752293 5:0.86788988 6:1.1587156 7:-0.10733945 8:0.6036697 9:0.28807339 10:2.02082 11:-1.4078 12:-0.137702 13:0.401241 14:-0.490031 15:-0.963568 16:0.700531 17:0.611539 18:-0.333773 19:0.338409 20:0.247976 21:-0.0891933 22:-0.170716 23:-0.00331632 24:0.0261092 25:0.879256 26:0.396911 27:-0.277113 28:0.888101 29:0.333905 30:-0.298322 31:0.0298324 32:-0.30272 33:0.525742 34:-0.0455133 35:0.665256 36:-0.341684 37:-0.117513 38:-0.42534 39:-0.400789 40:0.0246794 
128 0 1:0.92649311 2:-0.40515679 3:-0.11255743 4:0.72511488 5:1.0551301 6:1.2802451 7:-0.17993875 8:0.07350689 9:0.74578869 10:2.73739 11:-1.56024 12:0.160524 13:0.398921 14:-1.00477 15:-0.6875 16:0.287215 17:0.615929 18:1.32529 19:-0.289434 20:-0.437245 21:0.0926988 22:-0.280931 23:-0.79583 24:-0.0484066 25:0.695135 26:0.123936 27:-0.871708 28:0.0721154 29:-0.0471256 30:-0.500636 31:-0.610523 32:0.197171 33:0.928664 34:0.115325 35:-0.12619 36:-0.0523518 37:0.226166 38:-0.649541 39:-0.131028 40:0.2174 
128 0 1:0.76626951 2:-0.49062866 3:-0.08203483 4:0.16681944 5:0.53162235 6:0.695692 7:-0.07699358 8:0.23373052 9:0.68835932 10:2.94701 11:-1.30589 12:-2.10478 13:-0.886953 14:-0.190303 15:0.565152 16:0.649218 17:1.88286 18:1.25976 19:0.0443343 20:-0.123302 21:-0.562306 22:-0.58088 23:-0.288816 24:-0.843725 25:-1.15676 26:0.280764 27:0.27565 28:-0.276336 29:0.334799 30:-0.94961 31:0.261143 32:0.0958281 33:0.0250481 34:1.33181 35:-0.00750561 36:0.0714726 37:0.855826 38:0.709347 39:-0.264868 40:0.103523 
128 0 1:0.72310758 2:-0.40776882 3:-0.02888446 4:0.29581672 5:0.73406374 6:0.79183269 7:-0.44920319 8:0.27689242 9:0.27290836 10:3.89762 11:-1.27655 12:-0.722871 13:1.42788 14:-2.02019 15:0.0880132 16:1.33808 17:-0.345828 18:0.369955 19:-0.157623 20:1.25253 21:1.18213 22:-0.260032 23:-0.37247 24:-1.18172 25:0.57554 26:1.17713 27:0.730506 28:0.154004 29:0.203131 30:1.00457 31:0.473241 32:0.193771 33:-1.28859 34:-0.103384 35:-1.60442 36:0.426952 37:0.3503 38:0.842632 39:-0.207404 40:-0.59669 
128 0 1:0.43610698 2:-0.32966748 3:0.06129272 4:0.47845468 5:0.80534917 6:0.68276376 7:0.02228826 8:0.56389302 9:0.4576523 10:2.3861 11:-1.75988 12:0.021511 13:1.36883 14:-0.394302 15:-0.813689 16:0.839162 17:0.630482 18:-0.758928 19:1.02392 20:0.684051 21:0.162575 22:0.186266 23:0.226202 24:-0.0257877 25:0.890974 26:-0.413908 27:-0.806112 28:-0.0771852 29:-0.081066 30:-0.762448 31:-0.00607823 32:-0.641052 33:-0.149414 34:0.831219 35:0.158307 36:0.724652 37:-0.66227 38:0.772666 39:-0.228239 40:0.432715 
122.3515674158123 8.298634213072919 1:0.73654711 2:-0.27802691 3:0.02634529 4:-0.08183856 5:0.71524662 6:0.66255605 7:-0.44282511 8:0.26345292 9:0.2926009 10:3.15696 11:-0.895737 12:-1.23921 13:-0.361795 14:-1.67094 15:1.71442 16:0.682631 17:0.411939 18:1.16457 19:1.62927 20:-1.26622 21:-0.121815 22:-0.790297 23:-0.327123 24:0.167384 25:0.193594 26:0.104236 27:-1.35337 28:-0.857942 29:0.597525 30:0.272808 31:-0.234706 32:0.547365 33:0.0439662 34:0.184433 35:-0.259057 36:-0.970915 37:-0.65787 38:-0.0929958 39:-0.524811 40:-0.451038 
25.99614131276152 0 1:0.5701254 2:-0.32826698 3:0.03278221 4:0.22690992 5:0.57354617 6:0.50798178 7:0.00627138 8:0.42987457 9:0.5758267 10:2.63754 11:-1.09977 12:-2.96691 13:0.753953 14:-0.978854 15:-0.511639 16:0.33802 17:0.621653 18:0.681787 19:0.0951466 20:-1.36601 21:0.270952 22:-0.194707 23:0.427264 24:0.827123 25:-0.339132 26:0.298992 27:-0.435337 28:0.130842 29:-0.343376 30:-0.537101 31:0.109577 32:-0.484194 33:-0.153714 34:0.431362 35:-0.101649 36:1.36214 37:-0.121681 38:0.698874 39:0.10659 40:-0.726559 
39.8707742747746 0 1:0.6168009 2:-0.32069543 3:0.07249712 4:0.11047181 5:0.62255466 6:0.4775604 7:-0.29344073 8:0.38319907 9:0.32220945 10:3.25964 11:-1.23512 12:-2.29054 13:2.23842 14:-1.17736 15:1.18112 16:1.03549 17:2.12573 18:0.349399 19:-0.0260186 20:-0.278149 21:-0.938745 22:-0.765311 23:-0.00632483 24:0.146698 25:-0.676378 26:0.388624 27:-0.492655 28:-0.240102 29:0.317133 30:0.762074 31:-0.159471 32:-0.0137891 33:-0.43112 34:0.586091 35:0.3153 36:-0.682791 37:-0.868864 38:-0.276247 39:-0.28408 40:-1.43078 
128 0 1:0.29508874 2:-0.48864418 3:-0.01300041 4:0.10978127 5:0.48039621 6:0.50639701 7:-0.12711515 8:0.70491129 9:0.16756088 10:2.06353 11:-0.0077482 12:-2.85718 13:0.806466 14:-1.07707 15:0.549629 16:0.2181 17:-0.206688 18:-0.727708 19:0.808053 20:0.647413 21:1.26025 22:-0.300423 23:-0.186449 24:-0.950293 25:-0.0724138 26:0.772453 27:1.29185 28:0.621055 29:0.0468233 30:1.08239 31:0.556067 32:-0.344474 33:-0.303038 34:-0.629353 35:-0.312468 36:0.6555 37:0.976276 38:0.60498 39:-0.171696 40:-0.204533 
128 0 1:0.23072021 2:-0.55046177 3:0.06787763 4:0.43021032 5:0.81580627 6:0.68005097 7:0.12874442 8:0.76927978 9:0.35882729 10:1.68598 11:-0.750812 12:-2.11501 13:1.45493 14:-0.939472 15:-0.440402 16:0.995414 17:0.502598 18:0.512377 19:0.468497 20:-0.433295 21:0.0958142 22:-0.1979 23:-0.0467385 24:1.13874 25:0.83037 26:0.37967 27:-0.476293 28:0.32966 29:0.166287 30:-0.115473 31:-0.783324 32:0.258583 33:-0.743491 34:-0.486787 35:-0.636793 36:0.191166 37:0.71217 38:0.0516612 39:-0.435387 40:-1.09923 
128 0 1:0.36800894 2:-0.37863535 3:0.12192394 4:0.18791947 5:0.88926172 6:0.64541388 7:-0.24161074 8:0.63199103 9:0.12527964 10:2.57348 11:-0.358012 12:-2.39877 13:1.84952 14:-1.37714 15:0.0108153 16:0.707007 17:0.178043 18:-0.355795 19:-0.154077 20:0.544366 21:0.180277 22:-1.55279 23:0.170632 24:0.145032 25:1.15125 26:0.931666 27:-0.358138 28:0.402764 29:-0.206451 30:-0.403994 31:0.176795 32:0.087102 33:-0.304134 34:-0.263497 35:-0.252911 36:-0.718427 37:0.591186 38:0.161809 39:-0.364031 40:-0.664 
128 0 1:0.77047414 2:-0.35422805 3:0.15355603 4:1.1368535 5:1.8793104 6:1.5721983 7:-0.2650862 8:0.22952586 9:0.50431037 10:2.59907 11:-1.64432 12:1.3618 13:0.815224 14:-0.276551 15:0.401879 16:-0.309732 17:0.663607 18:0.784383 19:0.971215 20:0.771264 21:-0.0543637 22:0.450571 23:-0.176236 24:-0.543887 25:0.295936 26:-0.768616 27:-0.290231 28:-0.395895 29:0.577194 30:-0.411501 31:-0.105121 32:-0.14141 33:-0.494861 34:0.722453 35:0.179823 36:-0.116005 37:0.140803 38:-0.0860454 39:-0.0803621 40:0.509358 
128 0 1:0.54852319 2:-0.52170771 3:0.10759494 4:1.4270042 5:2.0084388 6:1.7932489 7:0.06413502 8:0.45147678 9:0.61181432 10:1.37942 11:-1.53344 12:0.431975 13:0.95282 14:-0.763622 15:-1.374 16:-0.103618 17:0.128598 18:0.929953 19:-0.248372 20:0.629196 21:0.372428 22:0.26393 23:-0.525868 24:-0.49065 25:0.557257 26:-0.255558 27:-0.180041 28:-0.271011 29:0.221773 30:-0.564252 31:0.016593 32:-0.0323068 33:0.218591 34:0.826994 35:-0.82396 36:0.327703 37:-0.391173 38:-0.103403 39:-0.544156 40:0.769637 
71.44416982600004 0 1:0.31724137 2:-0.25279331 3:-0.03146552 4:0.17931035 5:0.60603446 6:0.66896552 7:-0.70948273 8:0.28965518 9:-0.39310345 10:3.81508 11:0.0248658 12:-2.87085 13:0.582252 14:-1.99332 15:-0.83472 16:-1.88376 17:-0.182447 18:1.16366 19:0.218198 20:0.860677 21:0.72864 22:1.66545 23:-0.57733 24:0.230712 25:0.755731 26:-0.142807 27:0.43155 28:-0.0758974 29:-0.755387 30:-0.299432 31:0.764099 32:-1.29037 33:0.670962 34:-0.0537902 35:-1.2805 36:0.341043 37:0.0123882 38:0.878223 39:-0.400688 40:-0.924495 
128 0 1:0.47301856 2:-0.06481583 3:0.0653457 4:0.20067453 5:0.65682966 6:0.52613831 7:-0.16526139 8:0.52698147 9:0.306914 10:4.04361 11:-1.07763 12:-2.85459 13:1.73558 14:-1.11375 15:1.38827 16:0.00546409 17:0.264353 18:0.322971 19:1.53312 20:0.554988 21:-0.353466 22:-1.04859 23:1.42033 24:0.558288 25:0.230343 26:0.65294 27:-0.0806224 28:-0.803603 29:-0.665518 30:-0.0486656 31:-0.391602 32:-0.613081 33:0.580393 34:0.507003 35:-0.266186 36:1.08305 37:0.229616 38:0.482155 39:0.58923 40:0.366123 
33.93391645368481 0 1:0.78558874 2:-0.55186981 3:0.1572935 4:0.16432337 5:0.85061514 6:0.53602815 7:-0.18980668 8:0.21441124 9:0.59490335 10:3.27538 11:-1.1598 12:-1.78694 13:2.04553 14:0.0458365 15:-0.814416 16:-0.0879651 17:-0.560359 18:1.50383 19:-1.00218 20:-1.52754 21:0.565388 22:0.416599 23:-0.611947 24:0.96509 25:-0.0729244 26:-0.0243697 27:-0.655542 28:-0.255485 29:-0.50583 30:0.637669 31:-0.84828 32:0.190486 33:-0.370701 34:-0.293371 35:-0.224128 36:-0.505301 37:0.141296 38:0.428446 39:0.245758 40:0.12553 
128 0 1:0.41088283 2:-0.52851605 3:0.04275402 4:0.40866184 5:0.67462522 6:0.58911717 7:0.3031649 8:0.58911717 9:0.71349251 10:1.32043 11:-0.693585 12:-2.05109 13:0.869557 14:-1.05139 15:0.00865227 16:2.64907 17:1.30119 18:-0.0103972 19:0.546552 20:-0.109547 21:0.0814005 22:-0.333466 23:-0.0730084 24:0.873623 25:1.06885 26:0.630541 27:-0.922864 28:0.0933106 29:0.201823 30:-0.177744 31:-0.987732 32:-0.537766 33:-0.529622 34:0.36271 35:-0.200604 36:0.0577843 37:0.0739991 38:0.408608 39:-0.319733 40:-0.424899 
9.379674196246722 0 1:0.74417251 2:-0.39610338 3:0.23892774 4:0.08799534 5:0.97902095 6:0.50116551 7:-0.58391607 8:0.25582752 9:0.15967366 10:3.52491 11:0.712259 12:-1.75798 13:1.57503 14:0.396217 15:1.76618 16:-0.287427 17:-0.246401 18:0.735771 19:0.799041 20:-0.450645 21:-0.0794939 22:-1.29217 23:0.590094 24:0.208702 25:-0.255276 26:-0.32371 27:1.63073 28:0.655815 29:0.424496 30:0.518523 31:-0.852429 32:0.236562 33:0.179702 34:1.42674 35:0.410141 36:0.666595 37:-0.655763 38:-0.374879 39:-0.730005 40:0.648641 
128 0 1:0.25050876 2:-0.35845914 3:0.08119658 4:0.15303215 5:0.48534799 6:0.32295483 7:-0.23178673 8:0.74949127 9:0.01851852 10:1.61759 11:0.64968 12:-3.17251 13:1.37313 14:-1.08968 15:0.51356 16:-0.257426 17:0.464526 18:-0.486697 19:-0.928631 20:0.0357717 21:-0.102591 22:-0.651084 23:0.595147 24:-1.50761 25:0.0596461 26:0.419 27:0.0578086 28:-0.937317 29:-0.613013 30:0.325821 31:1.18601 32:1.04327 33:-0.576812 34:-0.0343526 35:-0.0265061 36:-1.23871 37:0.862583 38:-0.397273 39:-0.158862 40:0.0929608 
94.37373204916904 0 1:0.47707888 2:-0.43153521 3:0.17883795 4:0.01012793 5:0.64552242 6:0.28784648 7:-0.34541577 8:0.52292109 9:0.13139659 10:3.04101 11:1.02255 12:-2.72022 13:2.8728 14:-0.337618 15:0.944308 16:-0.239546 17:-0.422649 18:0.969201 19:-1.30421 20:-0.122854 21:0.12115 22:-1.10521 23:0.216375 24:-0.806931 25:0.274402 26:0.894352 27:0.249056 28:-0.111183 29:-0.64439 30:-0.987683 31:0.138818 32:-0.43238 33:-1.64837 34:0.801786 35:-0.460124 36:-0.325153 37:0.131953 38:0.0932574 39:-0.0615777 40:-0.0293216 
128 0 1:0.69634795 2:-0.18703696 3:0.04472712 4:0.15428805 5:0.5925318 6:0.50307757 7:-0.8785392 8:0.12105047 9:-0.18260156 10:4.34414 11:0.940463 12:-2.08035 13:-0.0293572 14:-2.8756 15:-1.05345 16:1.34553 17:0.834619 18:0.466577 19:0.330564 20:1.15379 21:-0.274804 22:0.568425 23:2.28988 24:-0.996347 25:0.0486639 26:-0.878985 27:-1.57157 28:-0.17534 29:0.0711313 30:-0.133369 31:0.299801 32:0.0178981 33:0.753702 34:-0.878351 35:-0.765793 36:1.34974 37:0.579102 38:0.714405 39:0.832987 40:-0.00254407 
128 5.348573102436224 1:0.74003464 2:-0.22419612 3:0.0401502 4:0.24090122 5:0.65800118 6:0.57770073 7:-0.25880992 8:0.25996533 9:0.48064703 10:1.69614 11:0.226686 12:-2.96271 13:0.351 14:-0.318639 15:-0.197876 16:0.293537 17:0.720686 18:0.42141 19:-0.213912 20:-0.146401 21:0.289244 22:-0.758796 23:-0.712271 24:-0.0286348 25:-0.471786 26:-0.746031 27:0.159677 28:-1.30568 29:0.789437 30:-0.560477 31:-1.4147 32:-0.0664799 33:-0.784577 34:0.336704 35:0.333624 36:0.865623 37:0.266584 38:1.07189 39:0.920915 40:-0.328034 
12.38729180888578 0 1:0.84020102 2:-0.39359173 3:0.2361809 4:0.19095477 5:1.2211056 6:0.74874371 7:-0.70954776 8:0.15979899 9:0.12964824 10:3.66117 11:-0.159011 12:-2.24172 13:1.66815 14:-1.53307 15:-0.775671 16:-0.874791 17:-0.455209 18:-0.858723 19:-0.510033 20:0.178251 21:0.892546 22:-1.40107 23:0.878045 24:-0.685297 25:-0.0237939 26:-1.12636 27:-0.0414248 28:-0.312497 29:0.395089 30:-1.61034 31:0.34779 32:-0.673077 33:-0.634174 34:-0.159999 35:0.837924 36:1.01731 37:-0.178379 38:1.39421 39:0.0079092 40:-0.425128 
128 0 1:0.37631184 2:-0.5684644 3:0.12406297 4:0.27286357 5:0.88830584 6:0.64017993 7:-0.42353824 8:0.57571214 9:-0.04797601 10:3.0766 11:0.727609 12:-2.32694 13:0.654393 14:-0.736065 15:1.31054 16:-0.556397 17:-0.73535 18:-0.042837 19:-0.0537683 20:0.852382 21:0.444939 22:0.265515 23:-0.0602289 24:1.12598 25:0.43163 26:0.974248 27:2.07316 28:-0.21029 29:-0.808547 30:-0.260159 31:0.706605 32:-0.83337 33:0.25716 34:0.328575 35:0.579296 36:0.978312 37:0.483909 38:-0.231414 39:-0.514898 40:0.130328 
128 0 1:0.8577075 2:-0.14591655 3:0.0931677 4:0.06324111 5:0.52964425 6:0.34330887 7:-0.22021456 8:0.14229248 9:0.63692826 10:1.4455 11:-0.17007 12:-3.68781 13:1.42207 14:-0.185465 15:-0.171436 16:0.969576 17:0.357418 18:1.10291 19:0.669251 20:0.0393505 21:-0.168281 22:-0.533084 23:-0.587633 24:0.0594136 25:-0.84447 26:-1.20576 27:0.213375 28:0.352661 29:-0.146785 30:0.48976 31:-0.58066 32:0.501922 33:-0.911765 34:0.400664 35:-0.0874037 36:-0.440955 37:0.0215217 38:0.296235 39:-0.0489379 40:-1.1137 
128 0 1:1 2:-0.17872797 3:0.04089422 4:0.26281351 5:0.88222462 6:0.8004362 7:-0.64776444 8:-0.00654308 9:0.35114503 10:3.63788 11:-0.948019 12:0.000779898 13:1.32891 14:-1.12735 15:0.231692 16:-0.537407 17:1.07334 18:1.12665 19:0.111656 20:0.830871 21:-0.76998 22:-0.793509 23:-0.0520786 24:0.0973955 25:-0.384777 26:0.810738 27:-1.00484 28:-0.408741 29:0.183774 30:0.480252 31:-1.1512 32:0.187533 33:0.129513 34:0.0250902 35:0.806204 36:0.652515 37:-0.510261 38:-0.31299 39:0.322262 40:0.284752 
128 0 1:0.31399566 2:-0.3686488 3:0.05474982 4:0.01232777 5:0.57650471 6:0.46700507 7:-0.28426397 8:0.68600434 9:0.02900653 10:2.40448 11:-0.646155 12:-3.11022 13:1.16638 14:-0.399075 15:0.755861 16:-0.376164 17:0.0852596 18:0.0636636 19:0.159671 20:1.33399 21:-0.124528 22:-0.560948 23:0.26037 24:-0.23242 25:0.705722 26:0.208776 27:-0.253056 28:1.65792 29:0.149262 30:-1.29699 31:1.11327 32:1.02771 33:0.471146 34:0.450767 35:0.0958812 36:-0.788846 37:0.406915 38:-0.464711 39:-0.384455 40:-0.307871 
128 0 1:0.145 2:-0.42152563 3:0.11016667 4:0.11566667 5:0.43399999 6:0.21366666 7:-0.126 8:0.85500002 9:0.01866667 10:0.768763 11:0.918971 12:-2.25551 13:0.989379 14:-0.32776 15:0.71586 16:-0.814992 17:0.822122 18:-0.029238 19:-0.337944 20:1.37955 21:0.194222 22:-0.58186 23:0.829918 24:-0.705513 25:-0.334305 26:-0.160898 27:-0.0213932 28:0.193106 29:-0.574807 30:0.899079 31:1.09409 32:0.238177 33:-0.0484411 34:0.96137 35:-0.210202 36:0.0630427 37:-0.116682 38:-0.139236 39:0.416024 40:0.0271929 
128 0 1:0.61343014 2:-0.37884185 3:0.00514217 4:0.2740472 5:0.70961887 6:0.69933456 7:-0.81790686 8:0.1814882 9:-0.20508167 10:4.8332 11:0.250696 12:-1.49676 13:0.131435 14:-1.7355 15:0.897319 16:0.701305 17:-0.194478 18:0.415067 19:0.495671 20:-0.834886 21:-0.216419 22:1.97552 23:-0.523328 24:-1.07823 25:0.0456138 26:0.276034 27:-0.0333724 28:-0.187398 29:0.0556484 30:1.41988 31:-0.233784 32:-0.417693 33:0.852493 34:0.760172 35:0.811921 36:-0.591495 37:0.167831 38:-1.0734 39:0.950358 40:0.463929 
128 0 1:0.71739131 2:-0.19398344 3:0.18568841 4:0.19746377 5:1.5271739 6:1.1557971 7:-0.70652175 8:0.28260869 9:0.00905797 10:3.18229 11:0.0800159 12:-2.04692 13:1.22455 14:-0.964389 15:0.530672 16:-1.21859 17:-0.328652 18:0.263197 19:0.165864 20:-0.254714 21:0.333161 22:-1.337 23:-0.140964 24:0.512528 25:2.19724 26:1.0241 27:0.224082 28:0.00550162 29:0.94514 30:0.182815 31:-0.358948 32:1.40246 33:0.859856 34:0.350682 35:0.476471 36:-0.0578243 37:0.328663 38:-0.0658292 39:0.462913 40:0.156246 
128 3.930326511194715 1:0.96141976 2:-0.0193715 3:0.41280866 4:0.21913581 5:1.4691358 6:0.64351851 7:-0.99845678 8:-0.00925926 9:-0.03858025 10:3.61829 11:0.283818 12:-1.79479 13:2.02393 14:-0.859341 15:0.549114 16:-0.898673 17:-1.44122 18:0.489207 19:-0.126969 20:-1.20983 21:0.593726 22:-1.8116 23:-0.0872198 24:-0.153431 25:0.940232 26:0.951267 27:0.211808 28:0.347947 29:0.875841 30:-0.0233003 31:-0.844643 32:1.16381 33:0.890289 34:0.568735 35:0.235063 36:-0.609124 37:-0.51795 38:0.134647 39:0.455527 40:0.411893 
128 0 1:0.58072919 2:-0.14633942 3:0.33723959 4:0.20052083 5:1.4622396 6:0.78776044 7:-0.68098956 8:0.31770834 9:-0.1015625 10:3.29118 11:-0.166821 12:-2.22952 13:1.91667 14:-0.923706 15:1.13782 16:-0.890659 17:-0.412792 18:-0.601981 19:-0.708662 20:-1.03495 21:-0.12546 22:-1.08781 23:-0.0363891 24:0.67239 25:0.418703 26:1.10983 27:0.912826 28:-0.243727 29:0.87416 30:1.17784 31:-0.147304 32:0.352774 33:-0.108087 34:1.18137 35:0.183484 36:0.602563 37:-0.277415 38:0.39275 39:0.0790038 40:-0.00132989 
128 0 1:0.53379953 2:-0.23539709 3:0.60198134 4:0.13403264 5:1.5337995 6:0.32983682 7:-0.56526804 8:0.43356642 9:-0.03263403 10:1.53231 11:-0.033043 12:-1.2511 13:2.51442 14:-0.146672 15:1.45611 16:-0.379838 17:-0.529111 18:0.426029 19:-0.15785 20:0.307154 21:0.0190496 22:0.0271585 23:-0.955598 24:-0.67164 25:0.852681 26:0.590862 27:1.00921 28:-0.234934 29:0.703525 30:0.331075 31:-0.506283 32:1.24396 33:0.234408 34:0.994457 35:0.265519 36:1.07188 37:0.401216 38:0.412629 39:0.123716 40:-0.268142 
87.41534449568773 0 1:0.70150864 2:-0.25532636 3:0.20528017 4:-0.04741379 5:0.82435346 6:0.41379312 7:-0.61530173 8:0.29849139 9:0.08512931 10:2.50124 11:0.117112 12:-2.82827 13:1.31818 14:-0.422906 15:0.385549 16:-0.223105 17:0.93708 18:-0.654253 19:0.348001 20:-0.671218 21:0.404017 22:-0.939767 23:0.52017 24:0.575234 25:0.0911082 26:-0.719955 27:-0.493308 28:-0.0363674 29:0.670244 30:-0.593117 31:-0.374562 32:1.05828 33:-0.263268 34:-0.110909 35:0.0986321 36:-0.713568 37:-0.414983 38:-0.111293 39:0.981867 40:-0.0482871 
63.47593074722112 6.947443333358131 1:0.78746593 2:-0.27697554 3:0.65871936 4:0.22479564 5:1.7970027 6:0.47956404 7:-0.62670302 8:0.21253406 9:0.15940054 10:1.94713 11:0.0852123 12:-1.94535 13:2.26202 14:0.13824 15:0.600928 16:-1.29423 17:0.0260226 18:0.718741 19:-0.466499 20:-0.911331 21:-0.51275 22:-0.485994 23:-0.552162 24:0.1402 25:1.12332 26:1.33711 27:0.65542 28:-0.788711 29:0.481481 30:-0.223435 31:-1.27855 32:1.44889 33:0.0886609 34:0.706758 35:-0.0211146 36:-0.569606 37:0.509308 38:-0.243685 39:0.401772 40:-0.28692 
128 0 1:0.76154995 2:-0.10961013 3:0.11102831 4:0.43815202 5:1.390462 6:1.1684054 7:-0.84798807 8:0.15052161 9:-0.08792847 10:4.15319 11:-1.01753 12:-1.88872 13:1.37281 14:-0.827718 15:0.225927 16:-0.250866 17:0.00386206 18:-0.339265 19:0.544682 20:-1.0934 21:0.0956295 22:-0.826618 23:0.426801 24:1.55235 25:0.667423 26:-0.0858339 27:0.269909 28:-0.152243 29:-0.447484 30:-0.955502 31:0.159736 32:0.342641 33:0.799806 34:0.214624 35:-0.256121 36:-0.80438 37:0.00879406 38:0.425409 39:0.262072 40:-0.200793 
128 0 1:0.63375795 2:-0.44445828 3:0.29458597 4:0.16666667 5:0.96921444 6:0.38004246 7:-0.30254778 8:0.36624205 9:0.33014861 10:2.3712 11:-0.174857 12:-1.85451 13:2.17113 14:-0.154721 15:0.200175 16:1.04891 17:0.980631 18:-0.297641 19:0.0797934 20:-1.26699 21:0.303393 22:-0.0480632 23:-0.396379 24:0.891137 25:0.0725806 26:-0.920085 27:-0.189333 28:-0.257139 29:-0.370941 30:-0.309106 31:-0.71562 32:0.175144 33:-0.680716 34:-0.900556 35:-0.0313871 36:-0.110934 37:1.00914 38:0.211467 39:-1.10866 40:-0.583805 
91.24850256103835 0 1:0.56518817 2:-0.32423317 3:0.09038979 4:0.2123656 5:0.65860218 6:0.47782257 7:-0.32526881 8:0.43481183 9:0.23924731 10:2.96191 11:0.103178 12:-3.23027 13:1.73403 14:-0.554167 15:0.901369 16:0.917764 17:1.11922 18:-0.920164 19:-0.549776 20:-0.412326 21:0.182408 22:-1.13323 23:0.5806 24:-0.349258 25:0.052661 26:1.06548 27:0.221841 28:1.04728 29:-0.63402 30:0.797285 31:0.849956 32:0.145791 33:-1.29917 34:0.151158 35:0.368185 36:0.065081 37:0.347129 38:0.583431 39:0.0296729 40:-0.297519 
125.4757924995957 0 1:0.32682618 2:-0.47367492 3:0.11303526 4:0.32493702 5:0.76385391 6:0.53778338 7:0.14987406 8:0.67317379 9:0.47607052 10:1.7049 11:-0.938866 12:-1.59537 13:1.56091 14:-0.693278 15:-0.887756 16:1.16518 17:0.59919 18:1.51373 19:0.0345156 20:-0.152468 21:0.829756 22:0.60098 23:0.3993 24:0.642116 25:0.453816 26:-0.330425 27:-0.611813 28:0.863495 29:0.47598 30:-0.615151 31:-0.0643214 32:-0.870035 33:-0.845898 34:0.848413 35:-0.264306 36:1.36193 37:-0.246043 38:0.485812 39:-0.0918309 40:-0.161762 
34.62259365411951 0 1:0.54960436 2:-0.1845822 3:0.08094949 4:0.02556299 5:0.51978087 6:0.35788193 7:-0.32866707 8:0.45039561 9:0.22032867 10:3.87898 11:-1.32878 12:-2.6983 13:2.09962 14:-0.649293 15:0.729075 16:0.864987 17:2.10194 18:0.420071 19:0.498797 20:-0.178312 21:0.00409429 22:-0.831638 23:0.0950549 24:-0.584566 25:-1.15149 26:0.518584 27:-0.0685105 28:0.854876 29:0.106965 30:0.921301 31:-0.286111 32:0.615346 33:-0.324453 34:-0.46337 35:0.467739 36:-0.43085 37:0.0730083 38:-0.357463 39:0.170418 40:-0.769379 
113.7538999077635 0 1:0.47146529 2:-0.47165158 3:-0.00488432 4:0.00257069 5:0.3326478 6:0.34241647 7:-0.4133676 8:0.52853471 9:0.05758355 10:2.29934 11:0.0973436 12:-4.08121 13:-0.0348055 14:-0.573423 15:1.4025 16:0.550527 17:0.28455 18:-0.0902652 19:1.03894 20:-0.111403 21:0.852579 22:1.2789 23:-0.640473 24:-1.00352 25:-1.4331 26:0.741186 27:0.194881 28:-0.0722468 29:0.41336 30:0.704011 31:1.3065 32:0.190683 33:-0.562309 34:-0.873196 35:-0.240388 36:-0.621878 37:0.236113 38:-0.443052 39:-0.645175 40:0.712436 
93.37857458955784 0 1:0.59801978 2:-0.3057656 3:-0.08366337 4:-0.13465346 5:0.27326733 6:0.44059405 7:-0.09158416 8:0.40198019 9:0.50594062 10:1.9423 11:-1.62279 12:-3.9751 13:-0.50399 14:0.50859 15:0.692046 16:1.09777 17:0.17304 18:1.9474 19:0.535766 20:0.777587 21:-0.167668 22:-0.338109 23:-0.154691 24:-0.230881 25:0.36784 26:-0.456378 27:-1.03729 28:-0.303264 29:-1.0267 30:-0.347577 31:-0.232642 32:0.0208871 33:0.315424 34:-0.0798728 35:0.248502 36:0.12715 37:-0.214648 38:-0.0180628 39:-0.840452 40:0.257391 
128 0 1:0.2994186 2:0.10673275 3:0.13081396 4:-0.06104651 5:0.50436044 6:0.24273255 7:-0.51671511 8:0.48255813 9:-0.21802326 10:2.32267 11:-0.738345 12:-2.74063 13:1.1243 14:-0.495298 15:0.713491 16:0.165803 17:-0.663818 18:0.477247 19:-0.148188 20:-0.413254 21:-0.522375 22:-0.0483425 23:1.71024 24:-0.711258 25:-1.34612 26:-1.08526 27:0.408754 28:0.537551 29:-0.532191 30:-0.00816119 31:-0.00354195 32:-0.116652 33:0.245215 34:-0.651002 35:0.395207 36:0.0532553 37:-0.318188 38:0.326057 39:0.227309 40:0.246756 
128 0 1:0.34736842 2:-0.43335778 3:0.12870814 4:-0.00956938 5:0.45933014 6:0.20191388 7:-0.2583732 8:0.65263158 9:0.08851675 10:1.39413 11:0.441611 12:-3.18765 13:0.335039 14:-0.308306 15:1.81135 16:-0.297229 17:-0.762078 18:-0.142918 19:0.0319957 20:1.35599 21:0.773898 22:-0.136989 23:0.119381 24:-1.76129 25:-0.391351 26:0.141356 27:0.761133 28:0.299482 29:0.265991 30:0.586374 31:0.564568 32:-0.0360124 33:0.863492 34:0.324473 35:-0.238389 36:0.438854 37:0.684419 38:-0.569367 39:-0.840922 40:-0.183369 
128 0 1:0.36244541 2:-0.33823898 3:0.10180131 4:0.04585153 5:0.50163758 6:0.29803494 7:-0.38318777 8:0.61626637 9:-0.02128821 10:1.65627 11:0.172866 12:-3.4071 13:-0.156717 14:-1.27693 15:1.01402 16:0.183505 17:-0.185692 18:-0.395741 19:0.265266 20:0.379064 21:0.692653 22:1.49237 23:0.168905 24:-1.68679 25:-0.934235 26:-0.468847 27:-0.548533 28:-0.0108808 29:-0.0986351 30:0.383471 31:0.902668 32:-0.038672 33:-0.549935 34:-0.887571 35:-0.165488 36:-0.999137 37:-0.080229 38:-0.742572 39:-0.36075 40:0.832591 
128 0 1:0.42824075 2:-0.52107882 3:-0.04074074 4:-0.2212963 5:0.21805556 6:0.29953703 7:-0.24351852 8:0.57175928 9:0.18425927 10:1.73062 11:-0.82776 12:-3.01275 13:-0.0763741 14:-0.836248 15:0.415363 16:-0.848687 17:-0.850135 18:-1.18019 19:0.209529 20:0.967416 21:1.24471 22:0.851129 23:-1.08172 24:-1.37144 25:-1.41496 26:0.898316 27:0.111359 28:-0.198077 29:0.735499 30:0.418899 31:1.23778 32:0.0573726 33:0.974567 34:-0.565128 35:0.319556 36:0.258518 37:-0.125318 38:-0.737015 39:-0.302738 40:-0.0696806 
128 0 1:0.97878498 2:-0.09546769 3:-0.15236259 4:0.72131145 5:1.3047252 6:1.6094503 7:-0.80810028 8:0.02121504 9:0.16972035 10:4.53474 11:-1.72145 12:-0.0142303 13:0.219 14:-0.892199 15:-0.022832 16:-0.46 17:0.141978 18:-0.737283 19:-0.0516166 20:-0.792591 21:0.111814 22:-0.45402 23:-0.598742 24:-0.38228 25:-0.138349 26:-0.0571361 27:0.421056 28:-0.29018 29:-0.992271 30:-0.176662 31:-0.304742 32:0.776523 33:0.429883 34:0.550333 35:0.522078 36:-0.783159 37:0.377376 38:0.43262 39:-0.147731 40:0.160673 
38.87679850588138 0 1:0.55315316 2:-0.36189735 3:-0.02162162 4:0.1936937 5:0.78648651 6:0.82972974 7:-0.40360361 8:0.44684684 9:0.14864865 10:3.84965 11:-1.00928 12:-2.4436 13:1.06216 14:-0.210247 15:1.13769 16:0.168658 17:-0.107621 18:0.0274604 19:-0.151548 20:0.810479 21:-0.0796617 22:-0.962177 23:-0.0647388 24:-0.550129 25:0.0837596 26:-0.0173515 27:1.75952 28:0.577023 29:1.15168 30:0.39072 31:-0.260348 32:0.338595 33:0.301383 34:2.35677 35:0.445499 36:0.0383126 37:0.00109253 38:-0.0854508 39:-0.733989 40:1.94428 
128 6.979073769079105 1:0.9478749 2:-0.24502087 3:-0.05012029 4:0.21972735 5:0.97273457 6:1.0729752 7:-0.99919808 8:-0.05613472 9:-0.0521251 10:5.18164 11:-0.975992 12:-0.758113 13:0.245935 14:0.243404 15:-0.0103973 16:-0.381557 17:-0.397524 18:0.47372 19:0.690134 20:1.50672 21:-1.45175 22:-0.638317 23:-0.209673 24:-0.128495 25:0.132218 26:-1.28442 27:0.441108 28:-0.305776 29:0.496716 30:-1.01852 31:-0.394486 32:-0.167125 33:0.254652 34:-0.296627 35:0.306912 36:-0.252348 37:-0.103589 38:-0.375126 39:0.329831 40:-0.833806 
10.42188604230316 0 1:0.37058824 2:-0.1883387 3:0.10176471 4:0.16823529 5:0.83999997 6:0.63647062 7:-0.17529412 8:0.62941176 9:0.19411765 10:3.77535 11:-1.25553 12:-1.55788 13:1.85184 14:0.120414 15:0.303541 16:0.5128 17:1.88002 18:-1.17582 19:1.82193 20:0.0252852 21:0.2043 22:-0.0969089 23:0.0358187 24:-0.777664 25:-0.0480287 26:-0.660726 27:-0.620148 28:0.143033 29:0.0270483 30:0.0739108 31:-0.305859 32:-0.359988 33:-1.20839 34:-0.395485 35:-0.652456 36:0.428507 37:1.15776 38:-0.791779 39:-0.24319 40:0.118601 
128 0 1:0.42105263 2:-0.30994147 3:0.1754386 4:0.24561404 5:0.94736844 6:0.59649122 7:-0.40350878 8:0.57894737 9:0 10:3.30612 11:-1.54512 12:-2.03088 13:3.19029 14:-0.756782 15:-0.480639 16:0.24101 17:1.24754 18:-0.105095 19:-0.465072 20:0.278977 21:-0.659308 22:-0.018355 23:0.890896 24:-0.416889 25:0.0459061 26:0.414959 27:0.20003 28:0.148221 29:-0.803649 30:0.010645 31:-0.0951269 32:-0.0141582 33:-0.760071 34:1.06979 35:0.441911 36:0.136288 37:-1.45475 38:-0.422391 39:-1.02525 40:-0.298565 
128 0 1:0.2734375 2:-0.4609375 3:0.20703125 4:0.0390625 5:0.6484375 6:0.234375 7:-0.0703125 8:0.7265625 9:0.1953125 10:1.184 11:-1.0921 12:-2.216 13:2.49655 14:-0.112167 15:0.981817 16:0.981473 17:1.30128 18:-0.0651408 19:-0.330235 20:0.389034 21:-0.297017 22:0.331237 23:-1.18698 24:-1.10546 25:-0.215025 26:-0.0113037 27:1.04072 28:-0.942319 29:0.0383257 30:0.40349 31:-0.0995078 32:0.617122 33:0.567145 34:-0.664026 35:-0.606256 36:0.344529 37:0.615747 38:0.480913 39:0.278176 40:0.111278 
128 0 1:0.43181819 2:-0.32629862 3:0.03409091 4:0.29545453 5:0.86363637 6:0.79545456 7:-0.34090909 8:0.56818181 9:0.06818182 10:4.43893 11:-1.22013 12:-1.78924 13:1.90614 14:-1.38714 15:0.587247 16:0.533993 17:0.577644 18:-0.831736 19:1.23141 20:0.442232 21:0.754337 22:-0.479144 23:0.440649 24:-0.406889 25:1.41716 26:1.1885 27:0.127219 28:0.485713 29:0.126402 30:-0.797266 31:-0.724411 32:-0.850719 33:-0.84277 34:0.884112 35:0.440206 36:0.874483 37:0.23368 38:0.490962 39:0.434605 40:-0.894473 
17.41490498119908 0 1:0.37234041 2:-0.34574467 3:0.16489361 4:0.23404256 5:0.75531918 6:0.42553192 7:-0.29787233 8:0.62765956 9:0.06382979 10:1.90958 11:-0.7783 12:-2.1841 13:2.6553 14:-0.289855 15:0.537841 16:0.541202 17:0.853934 18:-0.0325899 19:-0.14082 20:0.2051 21:-0.650713 22:-0.885561 23:-0.211037 24:-0.814922 25:-0.94937 26:0.104985 27:-0.684331 28:-0.200596 29:-0.313725 30:0.266499 31:-0.734206 32:0.328977 33:0.039879 34:-0.0247696 35:0.211573 36:-1.3764 37:-0.237587 38:-0.9041 39:-1.5497 40:-0.710436 
107.01789367038 0 1:0.36842105 2:-0.41052631 3:0.08947369 4:0.2736842 5:0.65263158 6:0.47368422 7:-0.16842106 8:0.63157892 9:0.18947369 10:2.30168 11:-0.536425 12:-2.74332 13:2.2149 14:-1.23907 15:-0.510125 16:0.200158 17:0.655363 18:0.351889 19:0.965564 20:0.17518 21:0.541498 22:-0.765338 23:0.238995 24:0.539988 25:-0.726245 26:0.405738 27:-1.1059 28:1.38713 29:-0.878427 30:-0.187237 31:-0.76668 32:0.47109 33:-0.141586 34:-0.14305 35:-0.395801 36:0.652495 37:0.607177 38:-0.224676 39:-0.0667424 40:-1.52519 
128 0 1:0.81481481 2:-0.22089945 3:0.04629629 4:0.3888889 5:0.92592591 6:0.83333331 7:-0.77777779 8:0.18518518 9:0.01851852 10:4.72689 11:-0.211665 12:-1.96211 13:1.73537 14:-0.883361 15:-0.551128 16:0.720305 17:0.118809 18:1.19355 19:0.981004 20:-0.358393 21:0.666075 22:0.100663 23:-0.134967 24:0.755194 25:-0.821576 26:0.862709 27:0.161356 28:0.534007 29:-0.518537 30:-1.07326 31:-1.58665 32:0.345137 33:-0.424133 34:-0.263786 35:0.618616 36:0.167298 37:-0.0750886 38:0.290593 39:-0.0923152 40:0.707537 
95.75605115921417 0 1:0.52083331 2:-0.25996366 3:0.16666667 4:0.375 5:1 6:0.66666669 7:-0.47916666 8:0.47916666 9:0.02083333 10:3.78769 11:-0.756998 12:-2.13421 13:2.35421 14:-1.30639 15:0.0151051 16:0.0332752 17:1.16676 18:0.709868 19:0.481084 20:-0.372516 21:0.342569 22:-0.403637 23:0.684237 24:0.938965 25:-0.423955 26:0.109875 27:-0.00738595 28:1.16364 29:-0.807621 30:0.0309782 31:-0.463044 32:-0.549217 33:-1.11425 34:-0.126099 35:1.15728 36:0.890966 37:-0.0123987 38:-0.557235 39:0.504349 40:-0.41717 
128 0 1:0.16428572 2:-0.44285715 3:0.30714285 4:0.06428572 5:0.77857143 6:0.16428572 7:-0.10714286 8:0.83571428 9:0.05 10:1.41247 11:-0.936001 12:-2.10141 13:2.97001 14:0.181855 15:0.48915 16:0.390475 17:0.421179 18:0.695801 19:-0.123281 20:0.443816 21:-0.140646 22:0.576093 23:0.177707 24:-1.70534 25:-0.970697 26:-1.148 27:1.02479 28:-0.605525 29:-0.305886 30:-0.73462 31:-0.106105 32:0.280578 33:0.250967 34:-0.382781 35:0.184822 36:0.565531 37:0.50474 38:0.90863 39:0.154681 40:-0.499939 
128 0 1:0.5 2:-0.30884352 3:-0.04761905 4:0.35714287 5:0.90476191 6:1 7:-0.30952382 8:0.5 9:0.16666667 10:4.20659 11:-1.53983 12:-2.74647 13:1.74999 14:-1.11368 15:-0.567382 16:-0.493544 17:0.857159 18:0.9792 19:1.05444 20:1.06418 21:1.42192 22:0.348083 23:-0.173171 24:0.0670485 25:0.933879 26:0.756593 27:0.853769 28:0.580917 29:0.108766 30:-0.967876 31:0.0241244 32:-0.659132 33:-0.305838 34:0.594264 35:0.396291 36:0.998138 37:0.722525 38:-0.427044 39:-0.15486 40:-0.776572 
109.7783270642146 0 1:0.30000001 2:-0.44374999 3:0.05625 4:0.0375 5:0.40000001 6:0.28749999 7:-0.1 8:0.69999999 9:0.1875 10:1.47493 11:-0.514068 12:-3.85623 13:1.64918 14:0.101007 15:0.552496 16:0.317465 17:1.45716 18:-0.35711 19:-0.504786 20:-0.104068 21:-0.434252 22:-0.653676 23:0.0822176 24:-1.74858 25:-0.952743 26:-0.886858 27:-0.0940397 28:-0.99075 29:-0.650074 30:0.391953 31:0.44134 32:0.306675 33:0.29347 34:-0.534522 35:-0.331288 36:-0.670214 37:0.941313 38:-0.0919877 39:-0.277862 40:-0.0525838 
8.160415222136663 0 1:0.4509804 2:-0.34539974 3:0.04901961 4:0.11764706 5:0.68627453 6:0.58823532 7:-0.39215687 8:0.54901963 9:0.03921569 10:4.08574 11:-0.615757 12:-3.34847 13:2.39179 14:0.0673941 15:-0.277889 16:0.358579 17:1.96141 18:0.2994 19:-0.390585 20:-0.327986 21:0.0561357 22:-0.315367 23:0.864052 24:0.0293078 25:-0.468308 26:-0.218041 27:0.241164 28:0.663413 29:-1.42276 30:0.00481926 31:0.311468 32:-0.328481 33:-0.772236 34:1.54515 35:0.912921 36:0.668001 37:-0.437634 38:-0.522781 39:-0.838131 40:0.0697244 
128 0 1:0.44444445 2:-0.55166668 3:0.1388889 4:0.22222222 5:0.58333331 6:0.30555555 7:-0.16666667 8:0.55555558 9:0.25 10:1.50826 11:-0.201924 12:-1.92071 13:0.855465 14:-0.489257 15:0.0922283 16:1.3093 17:0.128058 18:-0.242876 19:0.803065 20:-1.24299 21:0.892625 22:-0.392846 23:-0.404629 24:-0.423374 25:0.275788 26:0.051815 27:-0.881142 28:0.659276 29:0.714769 30:-0.289121 31:-0.615961 32:0.138572 33:-0.929172 34:0.0583604 35:-0.710497 36:-0.865239 37:0.617147 38:-0.0010938 39:-0.816274 40:-0.373365 
0.168070859342005 0 1:0.4848485 2:-0.50909102 3:0.10606061 4:0.24242425 5:0.54545456 6:0.33333334 7:-0.18181819 8:0.5151515 9:0.27272728 10:1.58817 11:0.70399 12:-3.31776 13:1.10654 14:-0.713596 15:0.53829 16:0.468115 17:1.26098 18:-0.24963 19:0.754928 20:-0.184369 21:1.11549 22:-0.490943 23:-0.331349 24:-0.0338309 25:-0.506212 26:0.948559 27:0.4449 28:0.602597 29:-0.00512253 30:-0.66886 31:-0.949331 32:-0.452419 33:-1.41099 34:0.464735 35:-1.18681 36:0.386164 37:1.36516 38:0.53451 39:0.335812 40:-0.552115 
128 0 1:0.57575756 2:-0.20320846 3:0.10606061 4:0.30303031 5:0.93939394 6:0.72727275 7:-0.54545456 8:0.42424244 9:0 10:1.95181 11:-0.968968 12:-0.274942 13:1.02023 14:-0.158652 15:0.257972 16:1.45663 17:0.901251 18:0.307311 19:0.284976 20:1.32988 21:0.13284 22:0.435106 23:0.486189 24:-0.391692 25:0.185379 26:0.371407 27:-0.0227712 28:0.313589 29:0.197026 30:0.0325122 31:-0.553101 32:-0.821147 33:-0.237501 34:0.734429 35:0.522856 36:0.341023 37:-0.260699 38:-0.358302 39:-0.411107 40:0.735671 
61.06096465769314 0 1:0.30769232 2:-0.3425824 3:0.0673077 4:0.21153846 5:0.57692307 6:0.44230768 7:-0.26923078 8:0.69230771 9:0.01923077 10:2.50048 11:0.226614 12:-3.53389 13:2.28466 14:-1.31691 15:0.437057 16:0.193015 17:0.885751 18:-0.41213 19:-0.910106 20:0.182483 21:-0.212151 22:-0.788092 23:0.225169 24:-0.853217 25:0.0152803 26:0.0626893 27:-0.875227 28:1.01213 29:-0.889392 30:-1.1707 31:1.13069 32:0.859102 33:-0.67963 34:-0.0544751 35:0.105336 36:-1.42202 37:0.415787 38:-0.432726 39:-0.359814 40:-0.213325 
128 0 1:0.40000001 2:-0.27165526 3:0.06666667 4:0.26666668 5:0.68888891 6:0.55555558 7:-0.42222223 8:0.55555558 9:-0.04444445 10:2.76203 11:-0.0252014 12:-2.52429 13:2.41524 14:-1.27732 15:1.22418 16:0.45367 17:0.642374 18:0.38443 19:-0.025774 20:0.760865 21:-0.313018 22:0.173284 23:0.447054 24:0.142057 25:0.0331864 26:0.148063 27:-0.283132 28:1.30817 29:-1.20854 30:-0.587845 31:1.12414 32:0.778456 33:-1.01746 34:0.179366 35:0.380231 36:-0.539177 37:-0.481137 38:-0.530308 39:-1.01393 40:-0.413267 
128 0 1:0.48148149 2:-0.30970624 3:0.12962963 4:0.33333334 5:1.074074 6:0.81481481 7:-0.4074074 8:0.51851851 9:0.03703704 10:2.64142 11:-1.6132 12:-0.0318029 13:0.752845 14:-1.0611 15:0.0234923 16:0.797898 17:1.3046 18:0.0977227 19:0.117589 20:0.97867 21:-0.0801496 22:0.476974 23:0.182915 24:0.140544 25:0.68675 26:0.428998 27:0.457407 28:0.566399 29:0.48929 30:0.585081 31:0.0922273 32:-0.844429 33:-0.874345 34:0.29291 35:0.559138 36:0.308317 37:-0.892094 38:-0.479619 39:0.552816 40:0.521147 
128 0 1:0.5625 2:-0.21963453 3:0.0625 4:0.1875 5:0.6875 6:0.5625 7:-0.5625 8:0.40625 9:-0.03125 10:3.2603 11:-0.827941 12:-0.882395 13:0.560461 14:-0.409209 15:0.869647 16:1.26565 17:0.793924 18:0.149633 19:-0.750518 20:0.454752 21:-0.151946 22:0.228346 23:-0.525033 24:-0.0929953 25:-1.09708 26:-0.108293 27:1.02242 28:0.563114 29:-0.110864 30:-0.0165587 31:-1.00243 32:-0.243542 33:-0.308611 34:1.39977 35:-0.582884 36:-0.690564 37:0.137383 38:-0.152076 39:-0.701992 40:0.287289 
121.8186261761195 0 1:0.375 2:-0.33609691 3:0.09375 4:0.08333334 5:0.60416669 6:0.41666666 7:-0.29166666 8:0.625 9:0.0625 10:3.34705 11:-0.374109 12:-3.36424 13:2.28669 14:-1.22815 15:0.560281 16:-0.535855 17:0.412014 18:-0.384668 19:-0.364045 20:0.860676 21:-0.342144 22:-0.425004 23:0.424488 24:-1.21377 25:-1.14982 26:-0.340449 27:-1.37358 28:-0.0160083 29:-0.974507 30:-1.53215 31:1.74947 32:-0.0504574 33:0.293917 34:0.117611 35:0.486678 36:-0.977088 37:-0.265063 38:-0.761461 39:-0.769683 40:-0.235392 
128 0 1:0.63333333 2:-0.13333334 3:0.11666667 4:0.1 5:0.69999999 6:0.46666667 7:-0.60000002 8:0.36666667 9:0 10:2.40751 11:-0.817686 12:-0.161707 13:0.683908 14:-0.393498 15:0.0412153 16:1.82338 17:0.185475 18:-0.128692 19:-0.0496269 20:1.40645 21:-0.122707 22:-0.164009 23:0.673479 24:-0.28397 25:-0.732684 26:0.3864 27:-0.075786 28:0.400412 29:0.687091 30:-0.134365 31:-0.582196 32:-0.840794 33:0.0778567 34:0.154022 35:-0.0639128 36:0.254099 37:0.0454984 38:-0.0853795 39:-0.585374 40:0.27886 
112.7263199073808 0 1:0.33846155 2:-0.5410257 3:0.17692308 4:0.16923077 5:0.61538464 6:0.26153848 7:0.07692308 8:0.66153848 9:0.40000001 10:1.62773 11:-0.798358 12:-2.78771 13:2.32665 14:0.222806 15:0.971682 16:0.370529 17:0.576797 18:0.28175 19:-0.0179827 20:0.132205 21:-0.725997 22:-0.407447 23:-0.605778 24:0.00950236 25:0.603444 26:-1.10156 27:-0.775072 28:0.310944 29:0.981447 30:-0.170662 31:-0.319126 32:0.263429 33:-0.355566 34:0.158849 35:-0.99997 36:-1.0873 37:0.317919 38:-0.0621992 39:-0.56311 40:-0.0783716 
128 0 1:0.56140351 2:-0.37390351 3:0.36842105 4:0.24561404 5:1.0877193 6:0.3508772 7:-0.28070176 8:0.43859649 9:0.2631579 10:2.57081 11:-1.08438 12:-1.65032 13:3.46627 14:-0.0320281 15:0.969016 16:-0.318338 17:-0.661984 18:1.53956 19:0.16847 20:0.532316 21:-0.298833 22:-0.195888 23:0.287333 24:-1.49121 25:0.717913 26:0.24267 27:-1.4187 28:0.377012 29:-0.546655 30:1.10707 31:-0.515507 32:1.07131 33:-0.952646 34:0.228952 35:-0.364382 36:0.107944 37:-0.291557 38:0.652059 39:-0.876292 40:-1.08278 
128 0 1:0.27692309 2:-0.51836216 3:0.18461539 4:-0.03076923 5:0.47692308 6:0.10769231 7:-0.01538462 8:0.72307694 9:0.24615385 10:1.26128 11:-0.395067 12:-2.52784 13:2.88857 14:-0.322331 15:1.86652 16:1.53077 17:0.868985 18:-0.651249 19:0.118582 20:-0.618135 21:0.313575 22:-0.167719 23:-0.96551 24:-1.37561 25:0.175344 26:-0.457909 27:0.421127 28:0.0557441 29:1.04824 30:-1.66091 31:0.122879 32:0.142258 33:0.722961 34:0.136941 35:-0.809723 36:-1.13835 37:0.379136 38:0.855911 39:0.848797 40:-0.632478 
105.2988554212073 0 1:0.30434781 2:-0.40579703 3:0.16304348 4:0.08695652 5:0.63043481 6:0.30434781 7:-0.19565217 8:0.69565219 9:0.08695652 10:1.9511 11:-0.435091 12:-2.97582 13:2.65296 14:-0.793791 15:1.01051 16:0.0208154 17:0.0168177 18:-0.0318718 19:-1.02169 20:0.605023 21:-0.711761 22:-0.751075 23:-0.279748 24:-0.949349 25:0.488175 26:0.854021 27:-0.345601 28:0.545789 29:-0.282118 30:-0.412057 31:0.0354545 32:0.824915 33:-0.337598 34:-0.987706 35:-0.227282 36:-1.61869 37:0.453919 38:-0.112794 39:-0.0203428 40:0.0920973 
128 0 1:0.29824561 2:-0.44840041 3:0.21929824 4:0.10526316 5:0.57894737 6:0.14035088 7:-0.14035088 8:0.70175439 9:0.14035088 10:1.56978 11:-0.181237 12:-2.36414 13:2.31794 14:-0.700939 15:1.77945 16:0.697691 17:0.265332 18:-0.462283 19:-1.20907 20:0.759442 21:-0.119358 22:-0.32727 23:-0.572873 24:-1.79334 25:0.364136 26:-0.0393363 27:0.0217211 28:-0.0325221 29:-0.192726 30:-0.887743 31:0.635679 32:-0.348859 33:-0.0860447 34:-0.416462 35:-0.100404 36:-0.798175 37:0.53358 38:0.77784 39:-0.543473 40:-0.0768869 
128 0 1:0.53846157 2:-0.4324787 3:0.23076923 4:-0.1025641 5:0.56410259 6:0.1025641 7:-0.33333334 8:0.46153846 9:0.17948718 10:2.27916 11:-1.27322 12:-1.162 13:1.06029 14:-1.28391 15:0.111228 16:1.29023 17:0.469458 18:-0.262481 19:0.0160591 20:-0.130692 21:-0.141048 22:-0.512342 23:-0.0790889 24:0.215227 25:-0.548383 26:0.417785 27:-0.584768 28:0.710487 29:0.0205783 30:-0.36778 31:-0.507319 32:-0.115873 33:0.437802 34:-0.038963 35:-0.533127 36:0.674078 37:-0.436342 38:-0.59931 39:-1.00954 40:-0.12012 
28.29171209104148 0 1:0.5625 2:-0.43296385 3:0.265625 4:-0.0625 5:0.625 6:0.09375 7:-0.28125 8:0.4375 9:0.25 10:2.07871 11:-1.12405 12:-1.56312 13:1.32121 14:-1.25441 15:0.316269 16:1.72139 17:0.409237 18:0.351895 19:-0.0804086 20:-0.0316192 21:0.139416 22:-0.650906 23:0.00404816 24:0.184319 25:-0.0804484 26:-0.299357 27:-0.173114 28:0.892315 29:-0.115162 30:0.0275652 31:-0.194195 32:0.26635 33:-0.0221617 34:-0.352567 35:-0.745885 36:0.511726 37:-0.251009 38:-0.640734 39:-0.99093 40:-0.294932 
128 0 1:0.3137255 2:-0.4523809 3:0.14705883 4:0.11764706 5:0.50980395 6:0.21568628 7:-0.15686275 8:0.68627453 9:0.13725491 10:1.54148 11:0.019084 12:-3.41705 13:1.82685 14:-0.565389 15:1.34513 16:0.0100687 17:0.547116 18:0.0492153 19:-0.957102 20:0.817282 21:-0.594217 22:-0.446834 23:-0.184501 24:-1.42222 25:0.358807 26:-0.107182 27:-0.785427 28:0.283445 29:-0.594473 30:-0.841159 31:0.353692 32:0.680292 33:-0.62222 34:-0.464598 35:-0.681049 36:-0.937387 37:1.29026 38:0.569658 39:-0.139967 40:0.0351148 
128 0 1:0.46153846 2:-0.58205122 3:0.14102565 4:0.15384616 5:0.48717949 6:0.20512821 7:0 8:0.53846157 9:0.43589744 10:1.25624 11:-0.427637 12:-2.6839 13:0.596594 14:-0.613835 15:0.289716 16:1.23973 17:0.931749 18:-0.441263 19:0.714634 20:-0.926753 21:0.617546 22:-0.448085 23:-0.0089921 24:-0.938062 25:-0.854421 26:-0.907032 27:-0.331056 28:-0.221146 29:-0.599278 30:0.0982192 31:-0.997965 32:0.0618913 33:-0.810051 34:-0.0926355 35:-0.659633 36:-0.108669 37:1.09998 38:0.510165 39:0.489393 40:0.162019 
128 0 1:0.32352942 2:-0.38838601 3:0.20588236 4:0.17647059 5:0.85294116 6:0.44117647 7:-0.2647059 8:0.67647058 9:0.02941176 10:3.04305 11:-0.780439 12:-2.95604 13:2.61622 14:-2.00636 15:0.720349 16:0.234817 17:-0.449483 18:-0.274423 19:0.730328 20:1.0047 21:0.193284 22:-0.11821 23:-0.388977 24:0.252321 25:0.875142 26:1.30959 27:0.104568 28:0.708139 29:-0.0287459 30:0.878976 31:-0.121525 32:0.773891 33:-0.157749 34:0.0877856 35:-0.270371 36:0.569894 37:0.27944 38:-1.29221 39:-0.2936 40:-0.897414 
31.00322189404467 0 1:0.42592594 2:-0.58592594 3:0.19444445 4:0.24074075 5:0.7037037 6:0.31481481 7:-0.01851852 8:0.57407409 9:0.3888889 10:2.04465 11:-0.811875 12:-2.67945 13:2.08825 14:-0.0370202 15:1.04789 16:0.69722 17:0.681234 18:-0.620434 19:1.48476 20:0.818418 21:-0.190368 22:-0.263535 23:-0.436006 24:0.891103 25:-0.320211 26:-1.20581 27:-0.396007 28:0.847601 29:1.03146 30:-0.254346 31:-0.745816 32:0.374594 33:-0.579288 34:1.30852 35:-0.454453 36:-0.266125 37:0.0616992 38:-0.138236 39:-1.17686 40:-0.578047 
72.79297649981638 0 1:0.27777779 2:-0.52732974 3:0.2361111 4:0.25 5:1.1111112 6:0.6388889 7:-0.1388889 8:0.72222221 9:0.11111111 10:2.76936 11:-1.42058 12:-2.37171 13:3.01828 14:-1.19367 15:0.331576 16:0.184003 17:-1.12636 18:-0.0854495 19:-0.0998114 20:0.914981 21:-0.573333 22:-0.711891 23:0.839696 24:0.29533 25:1.93404 26:0.250399 27:0.397881 28:0.147443 29:1.68981 30:0.957592 31:-0.351159 32:0.612061 33:-0.178201 34:0.791086 35:0.139196 36:0.0468855 37:-0.563921 38:0.363362 39:0.270107 40:-0.145345 
128 0 1:0.5 2:-0.53750002 3:0.175 4:0.25 5:0.69999999 6:0.34999999 7:-0.15000001 8:0.5 9:0.32499999 10:1.66315 11:-0.555808 12:-2.85602 13:1.61628 14:-1.01917 15:1.03909 16:0.771635 17:0.338173 18:0.0991784 19:0.853785 20:0.190667 21:0.00555654 22:-0.602998 23:-0.213961 24:0.405421 25:0.121184 26:-0.523203 27:-0.86358 28:0.759352 29:1.06671 30:0.523888 31:-0.731916 32:0.495211 33:0.098078 34:0.654468 35:-0.303114 36:-0.473231 37:0.0372942 38:0.167547 39:-0.89884 40:-0.970483 
128 0 1:0.5777778 2:-0.36041668 3:0.02222222 4:0.11111111 5:0.53333336 6:0.48888889 7:-0.26666668 8:0.42222223 9:0.2888889 10:2.40108 11:-0.569007 12:-2.31551 13:0.476868 14:-0.305404 15:0.282232 16:1.23009 17:0.267608 18:-0.0570238 19:0.465135 20:-2.02545 21:0.621954 22:-0.469947 23:0.0514622 24:-0.411601 25:-0.387773 26:-0.197718 27:-1.09913 28:0.320343 29:-0.0453715 30:-0.171504 31:-0.100329 32:0.214986 33:-0.512115 34:0.617648 35:-0.987836 36:0.318768 37:-0.0957115 38:0.708056 39:-0.303007 40:-0.36654 
123.8220521612872 0 1:0.29310346 2:-0.52250963 3:0.25 4:-0.03448276 5:0.48275861 6:-0.01724138 7:-0.0862069 8:0.70689654 9:0.18965517 10:1.087 11:-0.822354 12:-2.27497 13:1.68455 14:-0.460448 15:2.50537 16:0.834598 17:-0.125962 18:-0.885009 19:-0.99017 20:0.432118 21:0.381129 22:-0.355157 23:-0.252982 24:-1.81892 25:0.618843 26:-0.150849 27:-0.57439 28:0.195713 29:-0.461109 30:-0.84167 31:0.367024 32:-0.478652 33:0.468067 34:-0.604142 35:-0.731018 36:-0.0226427 37:0.57802 38:0.906495 39:0.389422 40:-0.594164 
128 0 1:0.41463414 2:-0.55400681 3:0.21951219 4:-0.02439024 5:0.51219511 6:0.07317073 7:-0.02439024 8:0.58536583 9:0.36585367 10:1.22864 11:-0.642289 12:-1.99145 13:0.719287 14:-0.336477 15:0.186327 16:1.54087 17:1.29021 18:-0.291563 19:0.306448 20:-0.265698 21:0.38802 22:-0.190991 23:-0.44169 24:-0.624215 25:-0.566238 26:-0.331761 27:-0.152216 28:0.979265 29:-0.571561 30:0.0383056 31:-0.477278 32:0.556175 33:-0.92483 34:-0.223822 35:-0.630161 36:0.204243 37:0.796801 38:0.573817 39:-0.647099 40:-0.375083 
128 0 1:0.3125 2:-0.52145511 3:0.27083334 4:-0.04166667 5:0.58333331 6:0.04166667 7:0 8:0.6875 9:0.29166666 10:1.26067 11:-1.46338 12:-1.77358 13:2.93588 14:0.122994 15:2.12039 16:0.13844 17:0.0643507 18:-0.464435 19:-0.621908 20:0.340121 21:-0.715522 22:-0.10088 23:-0.741099 24:-0.873868 25:0.995065 26:0.382058 27:-0.760445 28:0.0740276 29:-0.326883 30:-0.834775 31:-0.842121 32:-0.222867 33:-0.276166 34:-0.0316279 35:-1.41968 36:-0.894517 37:0.601994 38:-0.328282 39:0.265877 40:-0.977359 
128 0 1:0.34999999 2:-0.54553568 3:0.30000001 4:-0.2 5:0.47499999 6:-0.125 7:-0.025 8:0.64999998 9:0.30000001 10:1.26378 11:-0.843623 12:-2.64279 13:0.5793 14:-0.243723 15:0.985477 16:0.689051 17:0.712197 18:-0.565963 19:0.318848 20:0.0595246 21:0.279426 22:-0.168691 23:0.807316 24:-1.25258 25:-0.553364 26:-1.47957 27:0.274607 28:-0.38246 29:-0.663648 30:-0.173232 31:-0.195214 32:0.377421 33:-0.0188394 34:-0.662619 35:-0.779764 36:0.0762681 37:0.732549 38:0.361127 39:0.635186 40:0.0541687 
65.03052695523463 0 1:0.12 2:-0.34928569 3:0.10666667 4:0.03333334 5:0.34 6:0.12666667 7:-0.04 8:0.88 9:0.07333333 10:0.486607 11:0.425859 12:-1.74389 13:1.00297 14:0.535498 15:1.19047 16:-0.764649 17:0.155748 18:0.00819378 19:-1.25939 20:1.19077 21:-0.213625 22:-0.106262 23:0.237909 24:-1.59017 25:0.29517 26:0.00757968 27:-1.09734 28:0.317755 29:-0.100236 30:0.443452 31:1.28546 32:0.129109 33:0.104168 34:0.0347866 35:0.107058 36:-1.34721 37:-0.80505 38:0.235061 39:-0.188683 40:0.638753 
128 18.61686088671259 1:0.13529412 2:-0.41460159 3:0.07941177 4:-0.49411765 5:-0.20588236 6:-0.36470589 7:-0.01764706 8:0.86470586 9:0.11176471 10:-0.923497 11:-1.61114 12:0.67766 13:1.03118 14:0.686998 15:0.898301 16:1.05847 17:-0.386578 18:-0.242773 19:-0.262715 20:-0.950242 21:-0.113936 22:1.04496 23:-0.315248 24:-0.3003 25:0.00351246 26:-0.50166 27:0.289173 28:1.01832 29:0.133397 30:0.998055 31:-1.34268 32:-0.258395 33:0.0752036 34:0.0903653 35:-0.118092 36:-0.486531 37:-0.380931 38:-0.704668 39:-0.0567572 40:-0.404286 
33.75993798632273 0 1:0.47916666 2:-0.25449815 3:0.046875 4:-0.27083334 5:0.26041666 6:0.16666667 7:-0.10416666 8:0.52083331 9:0.36458334 10:1.30038 11:-0.221112 12:-3.13522 13:0.828138 14:0.232764 15:1.01189 16:-0.0514069 17:0.667197 18:-0.17411 19:0.467391 20:1.16555 21:0.786663 22:0.388745 23:-0.242796 24:0.0945689 25:-0.24007 26:0.731434 27:0.90154 28:1.39914 29:0.264751 30:0.136223 31:0.980424 32:0.360184 33:0.102733 34:-0.121109 35:-0.323567 36:0.533555 37:-0.0921047 38:-0.151241 39:0.14043 40:-0.538851 
128 0 1:0.9714576 2:-0.02811863 3:0.08408446 4:0.10151798 5:0.4981029 6:0.329934 7:-0.18081823 8:0.02854239 9:0 10:3.58482 11:-0.460673 12:-0.00392417 13:1.73741 14:-0.216838 15:0.516781 16:-1.8854 17:0.0558857 18:-0.563331 19:1.05604 20:-0.178674 21:0.264974 22:-0.111555 23:-0.616014 24:-0.711651 25:0.285131 26:0.803502 27:0.58463 28:-0.611071 29:0.622035 30:0.668586 31:-0.392636 32:0.704532 33:0.479913 34:0.342423 35:-0.372732 36:1.00371 37:-0.591202 38:-0.0495841 39:-0.337959 40:-0.560759 
128 0 1:0.9207992 2:-0.05492479 3:0.17215052 4:0.12187751 5:0.64899373 6:0.30469269 7:-0.12187824 8:0.0792008 9:0.03956202 10:3.26847 11:-0.663115 12:-0.672798 13:2.41947 14:0.115175 15:0.63582 16:-1.92728 17:0.378653 18:-1.18442 19:1.4698 20:-0.857082 21:-0.782698 22:-0.30992 23:-0.322312 24:0.293405 25:-0.677339 26:0.526365 27:-0.0406683 28:-1.13013 29:-0.120512 30:-0.118032 31:-0.800348 32:0.950481 33:1.06841 34:-0.363668 35:-0.274814 36:1.33607 37:1.02118 38:-0.7555 39:-0.519437 40:0.15493 
116.4034542331109 0 1:0.88978219 2:-0.12221774 3:0.14555152 4:0.12590726 5:0.48264408 6:0.19154106 7:-0.12061177 8:0.11021779 9:0.1154472 10:1.80539 11:-0.855923 12:-2.15209 13:2.72104 14:-0.556239 15:0.140782 16:0.788234 17:0.731211 18:0.623041 19:-0.1957 20:-0.355685 21:-0.492245 22:-0.49907 23:-0.24754 24:0.753086 25:0.680407 26:-0.597821 27:-0.527713 28:-0.917462 29:0.447271 30:-0.109255 31:-0.389719 32:0.419474 33:0.155899 34:-0.0237063 35:0.297003 36:-1.60315 37:-0.33124 38:-0.432599 39:-0.715272 40:-0.768231 
115.4174927993157 0 1:0.74965715 2:-0.14737393 3:0.07300873 4:0.02656584 5:0.27879936 6:0.13278188 7:-0.11949896 8:0.25034285 9:0.15745661 10:3.32875 11:0.537847 12:-4.18559 13:1.8129 14:0.544755 15:1.26831 16:-1.02018 17:1.30928 18:-0.923541 19:0.809289 20:-1.37363 21:-0.0876422 22:-0.323234 23:0.218725 24:0.0582066 25:-0.724724 26:-0.510568 27:0.998784 28:-1.23418 29:-0.308098 30:0.429976 31:-0.776235 32:-0.182135 33:-0.511475 34:0.66424 35:-0.360917 36:0.143632 37:0.588107 38:-0.0130833 39:0.167992 40:-0.732265 
63.61310151483222 0 1:0.77488226 2:0.0194605 3:0.11695518 4:0.01325212 5:0.32876387 6:0.09485354 7:-0.24711318 8:0.20301321 9:-0.02210452 10:1.85713 11:0.864693 12:-3.44225 13:1.82016 14:-0.866876 15:1.62511 16:-0.0872865 17:-0.310231 18:-0.13419 19:0.370407 20:1.00674 21:0.763904 22:-1.05186 23:0.9361 24:-0.825354 25:0.131437 26:-0.223434 27:1.80616 28:0.645652 29:0.420947 30:1.27638 31:-0.606187 32:-0.257706 33:-0.0897125 34:0.593231 35:-0.285437 36:0.892641 37:0.547991 38:0.0188271 39:0.207366 40:-0.656662 
41.93380275730665 0 1:0.8974663 2:-0.11325941 3:0.02703453 4:0.02561516 5:0.22493398 6:0.17086492 7:-0.09678581 8:0.10253371 9:0.09110828 10:3.13167 11:-0.927053 12:-1.38575 13:2.03507 14:0.0777837 15:0.310769 16:-0.967687 17:0.812215 18:-0.314021 19:1.47647 20:0.776912 21:-0.146421 22:-0.546677 23:0.801445 24:0.271756 25:-0.704031 26:-0.580028 27:-0.911593 28:0.180615 29:-0.60782 30:0.561488 31:0.661727 32:0.156857 33:-0.228806 34:0.124846 35:1.01186 36:0.735081 37:-0.114458 38:-0.428079 39:0.893465 40:-0.757784 
128 0 1:0.98867321 2:-0.04381641 3:0.11435906 4:0 5:0.2879554 6:0.0592373 7:-0.18348199 8:0.01132681 9:0.10165951 10:2.00451 11:-0.0949708 12:-1.79701 13:2.79273 14:-0.250314 15:0.898456 16:0.716016 17:1.20562 18:0.544096 19:1.43556 20:-0.0122675 21:1.35361 22:0.267321 23:-0.636591 24:-0.395745 25:-0.389234 26:-0.556256 27:-0.230737 28:0.321908 29:0.0656557 30:-0.247505 31:-1.02907 32:0.212175 33:-0.733988 34:0.15838 35:-0.406817 36:0.12494 37:-0.279974 38:-0.679475 39:0.422016 40:-1.08767 
97.55350479560812 0 1:0.9578107 2:-0.07014837 3:0.05010848 4:-0.00788597 5:0.18196774 6:0.08175077 7:-0.34284019 8:-0.00269363 9:-0.0421893 10:0.935623 11:0.538212 12:-3.27736 13:1.04197 14:-0.966226 15:1.38972 16:-0.478818 17:-0.613103 18:-0.213171 19:-0.542294 20:1.06505 21:-0.723938 22:1.71763 23:-0.362917 24:-0.485032 25:-0.132382 26:0.214809 27:-0.524098 28:-0.0370068 29:0.00826738 30:-0.109325 31:0.071119 32:0.214188 33:-0.967448 34:0.129281 35:-0.174647 36:0.578553 37:0.724723 38:0.319038 39:0.650303 40:-0.375244 
128 0 1:0.90009582 2:-0.12022734 3:0.02217388 4:-0.01667313 5:0.19703922 6:0.15269145 7:-0.08883276 8:0.09990419 9:0.11941314 10:2.70454 11:0.304101 12:-2.13218 13:1.3596 14:0.423118 15:0.611589 16:0.247153 17:1.1534 18:-0.154094 19:1.27417 20:0.328723 21:0.442063 22:-0.146988 23:-0.475982 24:0.886759 25:-0.794349 26:-1.51482 27:-0.389847 28:-0.947239 29:0.598773 30:1.04988 31:-0.834277 32:-0.22577 33:-0.169154 34:-0.148387 35:-0.295641 36:1.32641 37:-0.0336835 38:0.247326 39:-1.18834 40:-0.247611 
128 0 1:0.8199392 2:0.00137046 3:0.05191854 4:0.00690334 5:0.17540132 6:0.07156423 7:-0.20082842 8:0.18006079 9:0.0438362 10:1.29644 11:0.179708 12:-2.56314 13:0.662267 14:-0.755585 15:0.474997 16:0.792898 17:-0.513481 18:0.180072 19:0.489422 20:-0.798752 21:0.392577 22:0.345062 23:0.35781 24:-0.990213 25:-0.323342 26:-1.27599 27:-0.313802 28:-0.857022 29:0.13666 30:0.832913 31:-0.375998 32:0.418971 33:-0.929948 34:0.274271 35:-0.281361 36:-0.305285 37:0.939167 38:0.638545 39:0.3924 40:0.297876 
18.29196802905333 0 1:0.73314947 2:-0.10287693 3:0.00450878 4:0 5:0.1379061 6:0.12888855 7:-0.03618096 8:0.26685056 9:0.13339733 10:1.56775 11:-0.210829 12:-3.85448 13:0.361473 14:0.876357 15:1.22873 16:-1.78192 17:-0.178753 18:-0.207357 19:-0.0110707 20:0.860289 21:-0.553594 22:-0.770725 23:0.239694 24:-0.812697 25:-0.565533 26:-0.354832 27:-1.07955 28:-0.0884152 29:-0.0755576 30:-0.0094999 31:0.0552327 32:0.69408 33:-0.0698414 34:1.18754 35:-0.590748 36:-0.518743 37:0.261716 38:-0.269255 39:0.617043 40:0.504815 
128 0 1:0.78046829 2:-0.06518759 3:0.02336759 4:0.03969279 5:0.17751165 6:0.13077646 7:-0.08404129 8:0.21953174 9:0.11442213 10:2.34856 11:0.2121 12:-3.25837 13:0.674788 14:0.117692 15:1.20828 16:-1.06243 17:-0.101873 18:0.280701 19:0.976508 20:0.135544 21:0.472145 22:-0.942756 23:-0.164165 24:-0.445786 25:0.552722 26:0.0136977 27:0.477017 28:0.366662 29:-0.619276 30:0.676745 31:-0.192534 32:1.31969 33:0.452167 34:-0.0469522 35:-0.441267 36:0.670619 37:0.894575 38:-0.371103 39:-0.694017 40:-1.51075 
118.9502108515922 0 1:0.76636142 2:-0.04611491 3:-0.01388171 4:0.02544563 5:0.13418701 6:0.16195044 7:-0.09952138 8:0.23363855 9:0.09023812 10:1.85041 11:0.864119 12:-3.42996 13:0.650546 14:0.360461 15:0.785485 16:-1.00119 17:0.42074 18:0.185076 19:0.0687541 20:-0.103941 21:0.680275 22:-0.296342 23:0.075816 24:-0.927622 25:-0.110704 26:0.562901 27:-0.509077 28:-1.13596 29:0.695185 30:0.118939 31:-1.00537 32:-1.72133 33:-0.665373 34:0.500059 35:-0.488674 36:0.963263 37:0.75346 38:0.551437 39:-0.477709 40:-0.533594 
